0.0 0.0 0.0 0.0 0.0 0.0 0.0 0.0 0.0 0.0 0.0 0.0 0.0 0.0 0.0 0.0 0.0 0.0 0.0 0.0 0.0 0.0 0.0 0.0 0.0 0.0 0.0 0.0 0.0 0.0 0.0 0.0 0.0 0.0 0.0 0.0 0.0 0.0 0.0 0.0 0.0 0.0 0.0 0.0 0.0 0.0 0.0 0.0 0.0 0.0 0.0 0.0 0.0 0.0 0.0 0.0 0.0 0.0 0.0 0.0 0.0 0.0 0.0 0.0 0.0 0.0 0.0 0.0 0.0 0.0 0.0 0.0 0.0 0.0 0.0 0.0 0.0 0.0 0.0 0.0 0.0 0.0 0.0 0.0 0.0 0.0 0.0 0.0 0.0 0.0 0.0 0.0 0.0 0.0 0.0 0.0 0.0 0.0 0.0 0.0
0.22518999874591827 -0.34231001138687134 0.04916499927639961 -0.19638000428676605 -0.09709300100803375 0.08924099802970886 0.8043699860572815 -0.1697700023651123 0.03652400150895119 0.3379800021648407 -0.2798599898815155 -0.0922050029039383 -3.7973999977111816 0.5607900023460388 0.4136199951171875 0.448170006275177 -0.09697499871253967 -0.31801000237464905 -0.6489099860191345 0.04437499865889549 0.703819990158081 -0.011127999983727932 0.2280299961566925 0.2022700011730194 -0.5800300240516663 0.21277999877929688 -0.11607000231742859 0.17969000339508057 0.14788000285625458 -0.09735099971294403 0.12928999960422516 0.13075999915599823 -0.9483299851417542 -0.06595399975776672 -0.15895000100135803 0.6782799959182739 0.4988099932670593 0.574150025844574 0.9056500196456909 -0.17493000626564026 -0.41971999406814575 0.17799000442028046 -0.04297799989581108 0.5860300064086914 0.33239999413490295 -0.08276499807834625 0.18686999380588531 -0.42875999212265015 0.21893000602722168 -0.07731399685144424 0.2672800123691559 0.24582000076770782 -0.529229998588562 -0.2018900066614151 0.5304200053215027 -0.2258799970149994 0.6659200191497803 -0.4997900128364563 -0.08878300338983536 -0.3172999918460846 0.06891299784183502 -0.25286000967025757 0.416159987449646 0.21198999881744385 0.3231399953365326 0.18018999695777893 -0.6222699880599976 -0.46369999647140503 0.2927899956703186 -0.11990000307559967 0.1764100044965744 0.47203001379966736 0.09620500355958939 0.09003999829292297 0.18264999985694885 -0.38572001457214355 0.45778000354766846 -0.021074000746011734 0.2983100116252899 0.034400999546051025 1.1196000576019287 0.08669599890708923 0.1892700046300888 -0.2004700005054474 0.7906000018119812 -0.5436400175094604 -0.19711999595165253 -0.08463100343942642 0.31558001041412354 -0.031504999846220016 -0.28687000274658203 0.31782999634742737 -0.37814998626708984 -0.14710000157356262 -0.20009000599384308 -0.02786399982869625 0.23756000399589539 0.38266000151634216 -0.1409900039434433 -0.1448799967765808
0.10729999840259552 0.3605799973011017 0.11134999990463257 -0.016388000920414925 0.24461999535560608 0.3324800133705139 0.14966000616550446 0.002086699940264225 -0.48247000575065613 -0.7798299789428711 -0.24817000329494476 -0.136230006814003 -4.874199867248535 -0.12639999389648438 0.19718000292778015 -0.23438000679016113 0.31731000542640686 -0.5376600027084351 -0.33636000752449036 0.3224399983882904 0.3483799993991852 0.32392001152038574 0.01298299990594387 -0.43841999769210815 -0.03554699942469597 0.40794000029563904 -0.29036998748779297 0.2693899869918823 0.2896200120449066 -0.6869500279426575 -0.6205300092697144 0.10182999819517136 -0.5009099841117859 0.2566699981689453 0.5347499847412109 0.5686500072479248 0.7898300290107727 -0.3875199854373932 -0.4742699861526489 -0.44889000058174133 -0.35583001375198364 -0.12018000334501266 -0.023719999939203262 0.383899986743927 0.42996999621391296 0.34272998571395874 0.02444699965417385 -0.12669000029563904 0.290010005235672 -0.01194700039923191 -0.06891799718141556 -0.43248000741004944 -0.6033700108528137 -0.3210499882698059 0.37549999356269836 0.36800000071525574 0.16839000582695007 -0.3434399962425232 0.27393001317977905 -0.3554899990558624 0.2368600070476532 -0.5338000059127808 -0.06980700045824051 0.052483998239040375 0.4465999901294708 0.2832399904727936 -0.14695000648498535 -0.5523899793624878 -0.2869899868965149 0.4772700071334839 0.25244998931884766 -0.1578100025653839 0.5432299971580505 0.6055200099945068 0.38144999742507935 -0.06279300153255463 0.325219988822937 -0.08054199814796448 -0.3630099892616272 -0.11219999939203262 2.405900001525879 0.5720800161361694 0.07602699846029282 0.48680999875068665 0.7226300239562988 0.6066200137138367 0.31883999705314636 0.06730400025844574 0.09926299750804901 -0.027178000658750534 0.1668200045824051 0.010538999922573566 0.005983800161629915 -0.20050999522209167 -0.045093998312950134 -0.42844000458717346 0.5565500259399414 0.1493300050497055 -0.3086499869823456 -0.5519800186157227
0.0915519967675209 0.09333600103855133 -0.028113000094890594 0.3698999881744385 0.18955999612808228 0.4319100081920624 0.10266000032424927 0.34092000126838684 -0.3871699869632721 0.05077200010418892 -0.4828900098800659 -0.3788299858570099 -5.001999855041504 -0.2792699933052063 -0.14577999711036682 -0.10818000137805939 0.39177998900413513 -0.4579800069332123 -0.5471199750900269 -0.20868000388145447 -0.03349500149488449 0.10764999687671661 -0.17092999815940857 -0.10107000172138214 0.11071000248193741 -0.1755799949169159 -0.35738998651504517 0.15896999835968018 0.07976999878883362 -0.9759399890899658 -0.3905400037765503 0.150969997048378 -0.5633900165557861 0.500469982624054 0.1743600070476532 0.6896600127220154 0.26879000663757324 -0.47429999709129333 -0.014946999959647655 0.23483000695705414 -0.9460899829864502 -0.05538399890065193 0.2767300009727478 0.4118500053882599 0.3537299931049347 0.36708998680114746 -0.1492300033569336 -0.0664139986038208 0.25766000151634216 -0.0036881999112665653 -0.6652200222015381 0.07596500217914581 -0.30112001299858093 -0.15115000307559967 0.3553999960422516 0.597819983959198 -0.2058500051498413 -0.48642998933792114 0.6617900133132935 -0.13901999592781067 0.024041999131441116 -0.9129700064659119 -0.2179500013589859 0.49976998567581177 0.04922400042414665 -0.48337000608444214 -0.5152900218963623 -0.6842799782752991 -0.24887000024318695 0.5982900261878967 0.28255000710487366 0.31481000781059265 0.1510699987411499 0.32141000032424927 0.11085999757051468 0.04772600159049034 0.4908899962902069 -0.028488999232649803 -0.19484999775886536 0.320389986038208 1.9620000123977661 0.5885099768638611 0.35877999663352966 0.42173001170158386 0.6700000166893005 0.4660699963569641 0.04404300078749657 -0.12860000133514404 -0.16991999745368958 -0.0927480012178421 0.14248999953269958 -0.023226000368595123 -0.31345999240875244 0.22537000477313995 -0.42785999178886414 -0.5160599946975708 0.450300008058548 0.3317300081253052 -0.0874359980225563 -0.5550600290298462
0.07251899689435959 0.43042001128196716 0.29548999667167664 0.09306299686431885 -0.3807399868965149 0.10253000259399414 0.44321998953819275 0.01597299985587597 0.21739999949932098 0.25303998589515686 -0.3331199884414673 -0.4542900025844574 -5.512199878692627 0.07795900106430054 0.33250001072883606 -0.18592000007629395 -0.09010300040245056 -0.4300999939441681 -0.3739300072193146 0.04437499865889549 0.426580011844635 -0.05963199958205223 -0.2930600047111511 -0.0003291500033810735 0.1276399940252304 0.2298000007867813 -0.2506699860095978 0.29850998520851135 -0.02462100051343441 -0.6034299731254578 -0.39980000257492065 -0.06572400033473969 -0.15922999382019043 -0.36313000321388245 -0.8124300241470337 0.14390000700950623 -0.1471399962902069 -0.3453499972820282 0.2716499865055084 0.15380999445915222 -0.7430300116539001 -0.14659999310970306 0.3043299913406372 0.29896000027656555 0.07198099792003632 0.15121999382972717 0.21839000284671783 -0.10118000209331512 -0.5137500166893005 0.01697400026023388 -0.650600016117096 0.4531700015068054 -0.0238840002566576 -0.353300005197525 0.27090001106262207 0.18595999479293823 -0.6517400145530701 -0.16161000728607178 0.5279499888420105 -0.30237001180648804 -0.4682900011539459 -0.06302200257778168 0.19202999770641327 -0.24929000437259674 0.41374000906944275 -0.2577599883079529 -0.48155999183654785 0.2228199988603592 -0.06762299686670303 0.5499100089073181 0.08125100284814835 0.2603699862957001 0.06701499968767166 -0.28621000051498413 -0.22637000679969788 -0.4646899998188019 -0.07604999840259552 0.1935800015926361 -0.5853400230407715 -0.39743998646736145 2.147200107574463 0.11125999689102173 -0.36215999722480774 -0.06195700168609619 0.04439600184559822 0.3469099998474121 -0.08151999861001968 -0.639680027961731 -0.3014200031757355 -0.49338001012802124 -0.3733600080013275 0.3103800117969513 0.1680299937725067 0.2390100061893463 -0.12319999933242798 -0.19709999859333038 -0.17652000486850739 -0.3340499997138977 0.23035000264644623 -0.292279988527298
0.8258100152015686 -0.1739799976348877 -0.36208999156951904 0.035975001752376556 0.01720000058412552 0.3617599904537201 0.2683599889278412 -0.4661499857902527 -0.38065001368522644 -0.450300008058548 -0.4733699858188629 -0.09917400032281876 -2.6991000175476074 -0.2892099916934967 -0.16017000377178192 -0.047770000994205475 0.05308299884200096 -0.16032999753952026 -0.08018100261688232 0.3130300045013428 0.6723499894142151 0.21640999615192413 0.23348000645637512 -0.44332000613212585 -0.46740999817848206 0.5051699876785278 -0.22846999764442444 0.5674999952316284 -0.07622600346803665 -0.13931000232696533 0.08941499888896942 -0.15137000381946564 -1.3449000120162964 0.0985959991812706 0.6429299712181091 0.4615800082683563 0.026335999369621277 -0.430759996175766 0.21807000041007996 -0.5351099967956543 0.34325000643730164 -0.5562400221824646 -0.06860800087451935 0.6409100294113159 0.3540700078010559 0.23280000686645508 -0.0032909999135881662 -0.09087999910116196 0.04756399989128113 0.10841000080108643 0.3792499899864197 0.07428599894046783 -1.662600040435791 -0.3094500005245209 0.08831600099802017 0.36785000562667847 0.42173999547958374 -0.2947700023651123 0.324180006980896 -0.743120014667511 -0.22832000255584717 -0.5703099966049194 0.4709799885749817 0.22257000207901 1.0895999670028687 0.6347000002861023 0.4879299998283386 -0.39034000039100647 -0.011086000129580498 0.5939900279045105 0.09184099733829498 0.09366399794816971 0.40455999970436096 0.6625900268554688 0.2544099986553192 -0.060913000255823135 0.2320999950170517 0.11524999886751175 -0.06734299659729004 0.010962000116705894 1.4831000566482544 0.5373600125312805 0.4567599892616272 0.3303399980068207 1.0022000074386597 0.5027700066566467 0.4944399893283844 -0.1874299943447113 0.11864999681711197 0.44449999928474426 -0.37891000509262085 -0.01039700023829937 -0.14409999549388885 -0.48513999581336975 0.10890000313520432 -0.04194800183176994 0.4637700021266937 0.018729999661445618 -0.34251999855041504 -0.4936699867248535
0.06048300117254257 -0.038102999329566956 -0.07544499635696411 0.15052999556064606 -0.03795899823307991 0.0775500014424324 -0.14452999830245972 0.38095998764038086 -0.5128899812698364 0.28091999888420105 -0.001066099968738854 -0.7486900091171265 -4.543000221252441 0.1690099984407425 0.17418000102043152 0.5022000074386597 -0.3120099902153015 -0.4573400020599365 -0.17104999721050262 0.256740003824234 0.3465999960899353 -0.7426699995994568 -0.018185000866651535 -0.11670000106096268 0.011440999805927277 0.46435999870300293 -0.21945999562740326 0.41218000650405884 -0.10367999970912933 -0.33671000599861145 -0.32074999809265137 0.1391099989414215 -0.28106001019477844 0.44558000564575195 -0.05445199832320213 -0.2893500030040741 0.37692999839782715 -0.1442600041627884 0.16703000664710999 0.1577800065279007 -0.5487099885940552 0.13229000568389893 -0.17960000038146973 0.1379999965429306 0.009583700448274612 0.07281900197267532 0.03577499836683273 0.37494000792503357 -0.47569000720977783 0.40702998638153076 -0.12002000212669373 0.2860099971294403 -0.14722000062465668 -0.11417999863624573 0.551069974899292 0.2131499946117401 -0.15252000093460083 0.11328999698162079 0.28554999828338623 -0.07390899956226349 0.34968000650405884 -0.1138399988412857 0.12312000244855881 0.1296599954366684 0.330810010433197 0.3785400092601776 -0.14490999281406403 0.0805089995265007 -0.48892998695373535 -0.36890000104904175 -0.7085199952125549 0.023459000512957573 -0.17030000686645508 -0.3371500074863434 0.06807699799537659 -0.07312300056219101 -0.33748000860214233 -0.83228999376297 -0.23547999560832977 -0.19213999807834625 1.4194999933242798 -0.01377199962735176 -0.5596500039100647 -0.16651999950408936 0.0506879985332489 0.19426999986171722 0.5053099989891052 -0.08152899891138077 0.24463999271392822 0.14323000609874725 -0.12371999770402908 0.44916999340057373 -0.16853000223636627 0.446289986371994 0.056752000004053116 -0.34575000405311584 0.2029999941587448 -0.5991899967193604 0.33807000517845154 -0.16267000138759613
0.0 0.0 0.0 0.0 0.0 0.0 0.0 0.0 0.0 0.0 0.0 0.0 0.0 0.0 0.0 0.0 0.0 0.0 0.0 0.0 0.0 0.0 0.0 0.0 0.0 0.0 0.0 0.0 0.0 0.0 0.0 0.0 0.0 0.0 0.0 0.0 0.0 0.0 0.0 0.0 0.0 0.0 0.0 0.0 0.0 0.0 0.0 0.0 0.0 0.0 0.0 0.0 0.0 0.0 0.0 0.0 0.0 0.0 0.0 0.0 0.0 0.0 0.0 0.0 0.0 0.0 0.0 0.0 0.0 0.0 0.0 0.0 0.0 0.0 0.0 0.0 0.0 0.0 0.0 0.0 0.0 0.0 0.0 0.0 0.0 0.0 0.0 0.0 0.0 0.0 0.0 0.0 0.0 0.0 0.0 0.0 0.0 0.0 0.0 0.0
-0.6497399806976318 0.0690549984574318 0.2449900060892105 0.21498000621795654 -0.1207600012421608 -0.14636999368667603 0.3144899904727936 0.31742000579833984 -0.28189998865127563 0.047467999160289764 -0.07025399804115295 -0.9364500045776367 -5.344799995422363 -0.32003000378608704 0.11381000280380249 -0.11195000261068344 0.09488700330257416 -0.7676699757575989 -0.4888100028038025 0.15586000680923462 0.1335200071334839 -0.2405100017786026 0.1871899962425232 0.20194000005722046 0.43424999713897705 -0.017257999628782272 -0.09177599847316742 0.5658699870109558 0.1624400019645691 -0.5400500297546387 -0.5487099885940552 0.005050499923527241 -0.30807000398635864 0.32649001479148865 -0.2738499939441681 -0.0941770002245903 0.4964900016784668 -0.09122999757528305 0.2589299976825714 0.1662999987602234 -1.0407999753952026 -0.08621899783611298 0.4070099890232086 0.22191999852657318 0.020607000216841698 0.16785000264644623 -0.08415000140666962 0.0902160033583641 -0.32014000415802 0.27592000365257263 -0.5927199721336365 0.3645800054073334 0.09786400198936462 -0.1468300074338913 0.686710000038147 0.17351000010967255 0.2822900116443634 0.2634100019931793 0.0962039977312088 -0.17024999856948853 0.04623600095510483 -0.26146000623703003 -0.17809000611305237 -0.005141799803823233 0.3933500051498413 0.37755998969078064 -0.5574300289154053 0.36263999342918396 -0.3763599991798401 0.0306829996407032 -0.08986099809408188 0.24935999512672424 0.15910999476909637 -0.3998500108718872 0.41207000613212585 0.0877550020813942 -0.4890100061893463 -0.6471999883651733 -0.7379900217056274 0.004373000003397465 1.520300030708313 0.3377799987792969 -0.3285900056362152 -0.06660699844360352 -0.07432399690151215 0.6057400107383728 0.6450700163841248 -0.5778700113296509 0.17282000184059143 -0.015476999804377556 -0.00993959978222847 0.34389999508857727 0.42030999064445496 0.5927299857139587 -0.10943000018596649 -0.7431600093841553 -0.08085200190544128 -0.4675399959087372 0.4682700037956238 -0.4470199942588806
0.06447099894285202 0.8385099768638611 -0.22316999733448029 0.39438000321388245 -0.7880899906158447 -0.7158700227737427 0.8025000095367432 0.6652699708938599 -0.12939999997615814 -0.38019001483917236 0.122079998254776 -0.04335999861359596 -4.307300090789795 -0.2272299975156784 0.028402000665664673 0.5166400074958801 0.23261000216007233 -0.6362699866294861 -0.5887699723243713 -0.24879999458789825 -0.10854999721050262 -0.07077299803495407 0.055240001529455185 0.10199999809265137 0.37178000807762146 0.03655000030994415 -0.023101000115275383 0.5405399799346924 0.6920999884605408 -0.7477399706840515 -0.6861900091171265 0.3283500075340271 -0.5605900287628174 0.36239001154899597 0.3208799958229065 0.5685499906539917 0.6446099877357483 0.14970000088214874 0.020878000184893608 0.3102799952030182 -0.8297399878501892 0.10260999947786331 0.151869997382164 0.8240100145339966 -0.011087999679148197 0.3350600004196167 0.21017999947071075 -0.865559995174408 0.22801999747753143 0.35506001114845276 -0.5815600156784058 -0.32853999733924866 0.028085999190807343 -0.575160026550293 0.8179100155830383 0.22032000124454498 -0.3265100121498108 -0.10938999801874161 0.3542400002479553 -0.3196899890899658 0.5542200207710266 -0.6315900087356567 0.5575299859046936 0.4515799880027771 0.1342799961566925 0.9638400077819824 -0.8283900022506714 -0.47606000304222107 -0.8753399848937988 0.1470700055360794 0.8052399754524231 -0.137580007314682 0.6564900279045105 -0.157710000872612 0.3071799874305725 -0.06848199665546417 0.23165999352931976 -0.1796099990606308 -0.5151200294494629 0.6630600094795227 1.4092999696731567 0.29025998711586 0.1656699925661087 0.5824800133705139 0.30379000306129456 0.363319993019104 -0.08684299886226654 -0.11321999877691269 0.593209981918335 0.2806900143623352 0.41119998693466187 -0.08351200073957443 0.4589200019836426 -0.2301200032234192 -0.41640999913215637 -0.7961500287055969 -0.03677399829030037 0.028636999428272247 0.637220025062561 -0.7896199822425842
1.0533000230789185 0.1442900002002716 -0.1700800061225891 -0.16651999950408936 0.08207099884748459 0.3437800109386444 0.43713998794555664 -0.8226600289344788 -0.47404998540878296 0.14363999664783478 -0.3074899911880493 -0.9701300263404846 -3.936500072479248 -0.12839999794960022 0.3609499931335449 -0.29207998514175415 0.22235000133514404 -0.12578999996185303 0.03510500118136406 0.4540799856185913 0.4639500081539154 -0.2137800008058548 -0.22394999861717224 0.35339999198913574 -0.6610299944877625 0.7614399790763855 -0.7077100276947021 -0.2047400027513504 0.16824999451637268 -0.1670600026845932 -0.07558300346136093 0.38962000608444214 -0.39785000681877136 -0.09230200201272964 0.05857900157570839 -0.17504000663757324 0.4974299967288971 0.13381999731063843 -0.19913999736309052 -0.7139000296592712 0.044199999421834946 -0.696619987487793 0.3894999921321869 -0.05002399906516075 -0.06736399978399277 0.6454200148582458 0.028596999123692513 0.4792900085449219 -0.5335800051689148 0.2745000123977661 -0.075764000415802 -0.11366000026464462 -0.4130899906158447 -0.2708599865436554 0.15755000710487366 0.7134199738502502 0.27730000019073486 -0.17720000445842743 0.6565200090408325 -0.6902499794960022 0.4198499917984009 -0.70660001039505 0.4093700051307678 -0.13241000473499298 0.28380000591278076 0.33715999126434326 0.18331000208854675 -0.3112899959087372 0.14372999966144562 0.3121100068092346 -0.7018200159072876 -0.09166000038385391 0.2198600023984909 0.1031000018119812 -0.10296999663114548 -0.3459100127220154 -0.15525999665260315 0.49592000246047974 -0.2869400084018707 -0.43880000710487366 1.3877999782562256 0.7179700136184692 0.009972600266337395 0.07351499795913696 0.9991899728775024 -0.05567900091409683 0.21852000057697296 -0.528249979019165 -0.5883700251579285 -0.5113700032234192 -0.5194100141525269 0.8394299745559692 -0.4323900043964386 -0.38253000378608704 -0.07359299808740616 -0.06777600198984146 0.6562899947166443 0.2942599952220917 -0.09753499925136566 -0.3553299903869629
-0.47084999084472656 -0.40915000438690186 -0.10986000299453735 0.08541599661111832 0.9566500186920166 0.24763000011444092 0.34060999751091003 -0.40446001291275024 0.17059999704360962 0.28310999274253845 0.27445000410079956 0.03350000083446503 -2.255000114440918 0.1861799955368042 0.21387000381946564 0.33340001106262207 0.27526000142097473 0.026695000007748604 0.5820299983024597 -0.2629700005054474 -0.25817999243736267 0.1306000053882599 0.2729099988937378 0.2854599952697754 -0.5735099911689758 -0.8326900005340576 -0.2795200049877167 0.16615000367164612 0.22362999618053436 -0.7943400144577026 -0.14796000719070435 -0.22891999781131744 -0.012180999852716923 -0.5983800292015076 0.026266999542713165 0.15413999557495117 0.1566299945116043 -0.3154500126838684 -0.3531099855899811 0.20607000589370728 -0.5361999869346619 -0.3591499924659729 0.001429300056770444 -0.2812100052833557 0.5624799728393555 0.2452400028705597 0.5543199777603149 -0.27338001132011414 -0.7549300193786621 -1.0089999437332153 -0.07280799746513367 0.8834599852561951 -0.5894700288772583 0.24161000549793243 -0.7410600185394287 0.44701001048088074 0.3012399971485138 -0.3288300037384033 -0.6315199732780457 0.0029293999541550875 -0.09270499646663666 0.10661999881267548 0.49566999077796936 0.7378399968147278 1.1382999420166016 -0.1680999994277954 0.07339999824762344 -0.3095700144767761 0.7760499715805054 -0.1224299967288971 -0.8326900005340576 -0.5460299849510193 0.2699899971485138 0.18960000574588776 0.6321600079536438 -0.19673000276088715 -0.5131499767303467 -0.6651300191879272 -0.04676299914717674 0.24587999284267426 0.09120900183916092 0.4263699948787689 -0.037925999611616135 -0.35394999384880066 -0.11591999977827072 0.06149299815297127 0.9891899824142456 -0.16447000205516815 -0.06177699938416481 0.9218199849128723 -0.06222600117325783 1.0658999681472778 -0.12029000371694565 -0.4012799859046936 0.04138699918985367 -0.020270999521017075 0.05311400070786476 0.41192999482154846 0.48958998918533325 -0.3004299998283386
0.3869900107383728 0.37981000542640686 0.12822000682353973 0.057388998568058014 -0.4689500033855438 0.41870999336242676 0.011855999939143658 0.021144000813364983 0.20608000457286835 0.3574100136756897 -0.18480999767780304 0.10196000337600708 -4.993599891662598 -0.20487000048160553 0.1295499950647354 -0.07193800061941147 -0.033861998468637466 -0.46272000670433044 -0.4498099982738495 -0.21296000480651855 0.680620014667511 0.16791999340057373 0.19719000160694122 0.1922300010919571 -0.1416199952363968 0.2460400015115738 -0.17851999402046204 0.06568200141191483 0.21243999898433685 -0.9381300210952759 -0.37411999702453613 0.46887001395225525 -0.20160000026226044 0.2856000065803528 -0.41387999057769775 0.31731000542640686 0.2998799979686737 0.12437000125646591 0.2768299877643585 -0.047297000885009766 -0.9749600291252136 -0.25314998626708984 0.261819988489151 0.49524998664855957 -0.032409001141786575 -0.3988499939441681 0.3404200077056885 -0.25769999623298645 -0.09894199669361115 0.8085200190544128 -0.40389999747276306 0.3404400050640106 -0.12296999990940094 -0.24331000447273254 0.4594399929046631 0.2657800018787384 0.07174400240182877 0.22325000166893005 0.38578999042510986 0.020399000495672226 0.10668999701738358 -0.167480006814003 0.20318999886512756 0.3031199872493744 0.2558099925518036 -0.30768999457359314 -0.7557899951934814 -0.8996899724006653 -0.019221000373363495 0.3824000060558319 0.027569999918341637 0.2678700089454651 0.350849986076355 0.21496999263763428 0.023554999381303787 0.03441699966788292 0.4717400074005127 0.08847100287675858 -0.1139099970459938 0.12217000126838684 1.5968999862670898 0.5184900164604187 0.19220000505447388 0.4167200028896332 0.7553499937057495 0.001892999978736043 0.1931300014257431 -0.5047199726104736 -0.3158699870109558 0.160180002450943 -0.40413999557495117 0.007258499972522259 -0.18390999734401703 -0.07427400350570679 -0.37637999653816223 -0.5510600209236145 0.34834998846054077 0.44394001364707947 0.27913999557495117 -0.2746799886226654
-0.664870023727417 -0.06777899712324142 -0.03141099959611893 0.4424700140953064 0.25902000069618225 0.1939300000667572 0.04853599891066551 -0.9319499731063843 0.08128400146961212 -0.9239799976348877 -0.15804000198841095 0.1513500064611435 -2.1201000213623047 0.7254499793052673 0.6801000237464905 -0.19207000732421875 -0.07332000136375427 0.9729999899864197 0.15896999835968018 -0.888450026512146 -1.5592999458312988 0.2883000075817108 0.19508999586105347 0.5521699786186218 -0.7042199969291687 0.7940099835395813 -0.5327799916267395 1.0539000034332275 0.9241300225257874 -0.1789499968290329 0.11761000007390976 0.7031400203704834 -0.0420989990234375 -0.5514199733734131 0.6037600040435791 -0.5736899971961975 -0.0027296999469399452 -0.24420000612735748 0.4209499955177307 0.00763269979506731 0.48339998722076416 0.3085100054740906 -0.35047000646591187 -0.13987000286579132 0.2157299965620041 0.1592099964618683 -0.6839799880981445 -0.5192499756813049 -0.14744000136852264 -0.2679699957370758 -0.09902100265026093 0.1505499929189682 -0.5602099895477295 -0.3448599874973297 -0.4094400107860565 0.2673400044441223 -0.3680199980735779 -0.6948500275611877 -0.1579200029373169 -0.673550009727478 0.38857999444007874 0.1269499957561493 1.3041000366210938 -0.44345998764038086 0.17893999814987183 0.45322999358177185 0.1123799979686737 -0.37117999792099 0.8031899929046631 -0.10599999874830246 -0.7963200211524963 -0.33215001225471497 0.3893899917602539 0.8786900043487549 0.38554999232292175 -0.22578999400138855 -0.25977998971939087 0.24459999799728394 0.0069714998826384544 -0.11613000184297562 0.9040700197219849 0.5586599707603455 0.1476600021123886 -0.7667199969291687 -0.4664900004863739 -0.10399000346660614 -0.16016000509262085 -0.5447900295257568 0.2544499933719635 0.2975499927997589 -0.5181300044059753 0.502780020236969 0.6081600189208984 -0.1521500051021576 0.30810999870300293 -0.22471000254154205 -0.30842000246047974 -0.9064900279045105 -0.0779149979352951 0.04665999859571457
-0.38683000206947327 -0.21288999915122986 0.7098299860954285 -0.4618299901485443 -0.10371000319719315 0.28804999589920044 0.2818399965763092 0.5892699956893921 -0.39223000407218933 0.47944000363349915 -0.3781599998474121 -0.323199987411499 -4.229499816894531 0.44652000069618225 0.29686999320983887 -0.31005001068115234 -0.7310900092124939 -0.2063400000333786 -0.8395599722862244 -0.7709900140762329 -0.47356000542640686 0.3077700138092041 -0.12193000316619873 -0.11259999871253967 -0.07722900062799454 0.17966000735759735 -0.19044999778270721 -0.6395699977874756 0.09170400351285934 0.03460099920630455 0.25652000308036804 -0.38152000308036804 -0.25051000714302063 -0.0070813000202178955 0.04196399822831154 0.773140013217926 0.6351799964904785 0.8960800170898438 0.6430299878120422 -0.016742000356316566 -0.7846599817276001 -0.10021000355482101 -0.22944000363349915 -0.12495999783277512 0.01514500007033348 -0.274399995803833 0.291130006313324 0.4235900044441223 -0.12627999484539032 -0.30967000126838684 0.2602800130844116 0.2604199945926666 -0.6149500012397766 0.006294500082731247 -0.0686350017786026 0.2878899872303009 -0.05465799942612648 -0.6062800288200378 0.19261999428272247 -0.23140999674797058 -0.5929800271987915 -0.4998700022697449 1.0535999536514282 -0.06280799955129623 -0.4068700075149536 0.044206999242305756 -0.365229994058609 -0.1294099986553192 1.0654000043869019 -0.08393999934196472 0.1558299958705902 0.01410400029271841 -0.007223600056022406 -0.11599999666213989 0.5370399951934814 -0.19426999986171722 1.4592000246047974 0.19141000509262085 -0.1322299987077713 -0.3392699956893921 1.6615999937057495 0.23747000098228455 0.23462000489234924 -0.19922000169754028 0.5009199976921082 -0.2744799852371216 -0.4327700138092041 -0.3183799982070923 0.5932499766349792 -0.21908999979496002 0.3999199867248535 0.6204500198364258 0.11646000295877457 0.437389999628067 -0.21583999693393707 -0.006658600177615881 0.6463199853897095 0.013767000287771225 -0.3383199870586395 0.1009100005030632
0.5892699956893921 -0.4314199984073639 0.4563100039958954 0.268779993057251 -0.39945998787879944 0.04622400179505348 0.7292699813842773 -0.5331599712371826 -0.42723000049591064 -0.739329993724823 -0.8899099826812744 0.07507800310850143 -2.6298999786376953 -0.3239099979400635 0.29475998878479004 -0.2849299907684326 -0.7404500246047974 -0.054760999977588654 -0.08946999907493591 -0.9820700287818909 0.10492999851703644 -0.07389000058174133 -0.02926900051534176 -0.01108499988913536 -0.25442999601364136 -0.7578799724578857 0.2804200053215027 -0.026649000123143196 -0.03130200132727623 0.009665699675679207 0.8487899899482727 -0.7039300203323364 -0.3708600103855133 -0.8712199926376343 -1.2617000341415405 0.6066499948501587 0.03635000064969063 0.3639500141143799 -0.26078000664711 -0.7334799766540527 -1.2648999691009521 -0.47025999426841736 -0.4791499972343445 -0.37474000453948975 -0.8167200088500977 0.26778000593185425 -0.20892000198364258 0.7332199811935425 -0.32719001173973083 -1.2506999969482422 0.5019800066947937 0.39034000039100647 -0.3262900114059448 0.5460500121116638 -0.3972199857234955 0.11535999923944473 -0.19992999732494354 -0.3480600118637085 -0.5811799764633179 -0.33261001110076904 -0.2604700028896332 -0.4062899947166443 0.9800699949264526 -0.022213999181985855 -0.284060001373291 0.2812800109386444 -0.14827999472618103 -0.6463900208473206 0.598829984664917 -0.9447199702262878 0.02604600042104721 -0.6720700263977051 0.6580700278282166 -0.5373499989509583 0.08444499969482422 -0.6166599988937378 1.062600016593933 -0.6069700121879578 -0.5286300182342529 -0.07687599956989288 0.04013099893927574 1.676900029182434 -0.2135699987411499 1.1514999866485596 -0.05920200049877167 0.09033499658107758 -0.3038899898529053 0.04977099969983101 0.6556500196456909 -0.3945600092411041 -0.6885600090026855 0.007758200168609619 -0.0922589972615242 0.0847489982843399 -0.43042999505996704 0.3145599961280823 0.9113600254058838 0.4811600148677826 0.06916999816894531 0.07206600159406662
0.027340000495314598 0.02507000043988228 -0.017994999885559082 0.01570500060915947 -0.5689499974250793 0.29089000821113586 0.25033000111579895 -0.8156099915504456 -0.40432998538017273 -0.7986299991607666 -0.2635999917984009 -0.02380100078880787 -0.4968099892139435 -0.42052000761032104 -0.5567499995231628 -1.174399971961975 -0.37275999784469604 0.19133999943733215 0.19670000672340393 0.6316199898719788 -0.394430011510849 0.8303899765014648 0.5434899926185608 -0.02838899940252304 -0.516319990158081 0.7673900127410889 -0.04470599815249443 0.315530002117157 -0.596310019493103 0.2913300096988678 -0.5794199705123901 -0.5090000033378601 0.20155000686645508 -0.2582300007343292 -0.6647300124168396 0.29218998551368713 0.04561299830675125 0.12660999596118927 -0.33083999156951904 0.4134899973869324 0.28979000449180603 0.41503000259399414 -0.23723000288009644 0.725820004940033 0.7974600195884705 -0.4949299991130829 -1.0844999551773071 -0.044950999319553375 -0.577180027961731 -0.5931900143623352 0.9590700268745422 0.07072699815034866 -0.47683998942375183 0.7334200143814087 -0.1998399943113327 -0.506659984588623 0.0405380018055439 -0.548229992389679 -0.042431000620126724 -0.2101600021123886 1.0355000495910645 -0.7024199962615967 0.3596999943256378 0.7560300230979919 -0.3340499997138977 -0.1642799973487854 0.016891999170184135 0.7611899971961975 -0.24151000380516052 -0.2457599937915802 0.3913100063800812 0.9473299980163574 -0.7008299827575684 -0.35047000646591187 -0.39127999544143677 0.23119999468326569 -0.06038599833846092 0.7967000007629395 0.2903499901294708 -0.08247800171375275 0.9268900156021118 0.8192399740219116 -0.2884500026702881 -0.05654099956154823 -0.5255100131034851 -1.138700008392334 0.31297001242637634 -0.8743500113487244 0.45434001088142395 0.19830000400543213 -0.3154999911785126 0.10619000345468521 0.5260900259017944 -0.3537200093269348 -0.21344000101089478 -0.45451000332832336 0.04312099888920784 0.157260000705719 0.29467999935150146 0.26271000504493713
0.7429599761962891 -0.4619700014591217 -0.10567999631166458 0.8454200029373169 0.4844000041484833 0.580839991569519 0.438400000333786 -1.253999948501587 -0.48219001293182373 -0.04945899918675423 -0.4915100038051605 -0.40226998925209045 -2.88919997215271 -0.39239999651908875 -0.40077999234199524 -0.3571400046348572 -0.021877000108361244 -0.5029299855232239 0.9590200185775757 0.06948699802160263 -0.19704000651836395 0.001595500041730702 -0.4296700060367584 0.4525600075721741 -0.5764999985694885 1.344499945640564 -0.23628999292850494 0.5655199885368347 0.5150200128555298 0.21243999898433685 0.13437999784946442 0.30357998609542847 -0.34571999311447144 -0.09515099972486496 0.1562100052833557 0.42054998874664307 0.663070023059845 0.3848699927330017 0.18815000355243683 0.27132999897003174 0.20882999897003174 -0.04032900184392929 -0.5407599806785583 0.3957900106906891 0.3009899854660034 0.0002605099871288985 -0.09258600324392319 0.513729989528656 -0.9236699938774109 0.4685699939727783 0.7622600197792053 -0.4322099983692169 -1.045199990272522 -0.6924800276756287 -0.015046999789774418 0.599810004234314 -0.40338000655174255 -0.29611000418663025 -0.08173300325870514 -0.3932200074195862 0.49696001410484314 -0.44683000445365906 0.440530002117157 0.3999899923801422 0.5687299966812134 0.5150700211524963 0.3247700035572052 -0.388480007648468 -0.2062399983406067 0.28661999106407166 -0.9628000259399414 -0.43821999430656433 0.5892400145530701 0.2640500068664551 -0.1599300056695938 -0.47984999418258667 -0.575659990310669 -0.19248999655246735 -0.43518000841140747 -0.31755998730659485 0.6611999869346619 0.7732599973678589 0.31766000390052795 0.026843000203371048 0.7579900026321411 0.1736699938774109 -0.01155799999833107 -0.9871000051498413 -0.11585000157356262 0.0936330035328865 -0.3527800142765045 0.6521999835968018 -0.3490599989891052 -0.10822000354528427 0.2129800021648407 -0.20569999516010284 -0.2539899945259094 0.12476000189781189 0.0574520006775856 -0.2633199989795685
0.6162199974060059 -0.39438000321388245 0.05221499875187874 0.0949150025844574 0.25780001282691956 -0.24206000566482544 0.35830000042915344 -0.7599800229072571 -0.7100099921226501 -0.735480010509491 0.30564001202583313 -0.42333999276161194 -1.7991000413894653 -0.43654000759124756 0.25275999307632446 -0.14045999944210052 -0.3558200001716614 0.5803700089454651 -0.15546000003814697 -0.45333999395370483 -0.3788900077342987 0.24300000071525574 0.10163000226020813 0.7276999950408936 -0.3309899866580963 0.9494699835777283 0.4027400016784668 0.17093999683856964 0.005477100145071745 0.11981000006198883 -0.2503899931907654 0.04858599975705147 -0.7384399771690369 -0.04740000143647194 0.08647199720144272 0.5678899884223938 -0.0653889998793602 0.22585999965667725 0.46911001205444336 -0.4359799921512604 0.1471399962902069 -0.45596998929977417 0.6706500053405762 0.7427099943161011 0.415910005569458 -0.10253000259399414 -0.5913900136947632 -0.10639999806880951 0.10689999908208847 -0.36351001262664795 0.758870005607605 -0.16755999624729156 -0.9131600260734558 -0.1581300050020218 -0.19454999268054962 -0.3361000120639801 0.14688000082969666 -0.6649699807167053 0.29572999477386475 -0.27138999104499817 0.10007999837398529 -0.3069399893283844 0.4260700047016144 -0.1255200058221817 0.049828000366687775 0.6337400078773499 -0.07465799897909164 0.027854999527335167 0.514739990234375 0.2601099908351898 -0.11456000059843063 -0.2385299950838089 -0.08254700154066086 -0.01639699935913086 0.701770007610321 -0.800320029258728 0.20100000500679016 0.5630499720573425 0.17554999887943268 -0.34703999757766724 0.5026000142097473 0.29989999532699585 0.8863199949264526 0.14893999695777893 -0.34233999252319336 -0.455949991941452 0.2994399964809418 -0.0856890007853508 0.5362499952316284 -0.09657099843025208 -0.21089999377727509 0.8372099995613098 -0.25095999240875244 -0.7960100173950195 0.4886400103569031 0.26517000794410706 0.2345699965953827 0.18307000398635864 0.07520200312137604 0.25209999084472656
0.11416999995708466 0.38892000913619995 -0.0833590030670166 -0.7678400278091431 0.3634200096130371 -0.16369999945163727 0.8900200128555298 -0.5005000233650208 0.3693000078201294 -0.3102799952030182 0.17408999800682068 0.08620399981737137 -3.1507999897003174 0.05114300176501274 0.8191199898719788 -0.8436899781227112 0.6227499842643738 -0.056085001677274704 0.4147599935531616 0.3759100139141083 -1.2726999521255493 0.3935000002384186 0.07907900214195251 -0.015515999868512154 -0.28220999240875244 -1.8906999826431274 0.10452999919652939 -0.7829700112342834 -0.4499100148677826 0.13128000497817993 -0.3781200051307678 -0.44117000699043274 -0.5609599947929382 0.16457000374794006 1.1190999746322632 0.23247000575065613 -0.21723000705242157 -0.7122499942779541 -1.0170999765396118 -0.48217999935150146 -0.765209972858429 -0.486380010843277 0.12021999806165695 0.7820299863815308 0.8058199882507324 -0.1612599939107895 -0.19053000211715698 0.38082000613212585 -0.7263799905776978 -1.2142000198364258 0.1804099977016449 -0.4639100134372711 -0.3128199875354767 0.10707999765872955 0.37834998965263367 -0.7984600067138672 -0.538919985294342 0.49474000930786133 -0.3185499906539917 -0.676639974117279 0.16976000368595123 -0.06404600292444229 0.011882999911904335 -0.2698799967765808 0.4099299907684326 -0.3723500072956085 -0.4828200042247772 0.5416499972343445 0.00755780003964901 0.18084000051021576 0.12391000241041183 0.14246000349521637 0.1573300063610077 -0.5325999855995178 -0.024813000112771988 -0.33094000816345215 -0.6591600179672241 -0.03967500105500221 0.07379700243473053 0.0012766000581905246 1.868499994277954 0.3655099868774414 0.17872999608516693 0.27303001284599304 -0.5304399728775024 -0.5597500205039978 0.29427000880241394 0.27831000089645386 0.20496000349521637 -0.5274800062179565 0.3488900065422058 0.47224000096321106 0.03175399824976921 -1.1763999462127686 0.6070500016212463 0.8164299726486206 0.3915899991989136 -0.10407999902963638 0.889519989490509 -0.21573999524116516
0.04341699928045273 -0.6124500036239624 0.041106000542640686 0.166920006275177 -0.24115000665187836 0.8555300235748291 0.7124800086021423 -0.5354300141334534 -0.4792400002479553 0.36695998907089233 -0.5428299903869629 -0.1667499989271164 -3.912400007247925 -0.1192300021648407 -0.2458599954843521 0.06272599846124649 -0.37053000926971436 0.021284999325871468 0.09283299744129181 -0.1288899928331375 0.08478599786758423 0.15088999271392822 0.18400000035762787 0.2657899856567383 -0.08960100263357162 0.43406999111175537 -0.06279700249433517 0.47398000955581665 0.12087000161409378 0.24724000692367554 -0.17534999549388885 -0.2681899964809418 -0.24515999853610992 0.13651999831199646 -0.003960500005632639 0.6133400201797485 -0.0378200002014637 0.22100000083446503 0.03840000182390213 0.3264999985694885 -0.67180997133255 0.19512000679969788 -0.251010000705719 0.7784299850463867 0.5155900120735168 -0.4936099946498871 -0.4727100133895874 0.28547999262809753 -0.46658000349998474 0.2602199912071228 -0.30636999011039734 0.026141999289393425 -0.4599800109863281 -0.40623000264167786 -0.09852900356054306 -0.2561599910259247 -0.05368899926543236 -0.27364999055862427 -0.016297999769449234 -0.2393999993801117 0.45965999364852905 -0.2728399932384491 -0.25562000274658203 0.2942599952220917 0.6769099831581116 -0.5159800052642822 -0.1300099939107895 -0.07441899925470352 -0.4037800133228302 0.17690999805927277 -0.5600799918174744 0.5203999876976013 -0.05119900032877922 0.38005998730659485 0.1546899974346161 -0.6499800086021423 0.3109799921512604 -0.37874001264572144 -0.18041999638080597 -0.1958400011062622 1.1447999477386475 0.316430002450943 -0.24952000379562378 -0.4690600037574768 0.6180499792098999 0.6659299731254578 -0.44922998547554016 -0.5528799891471863 -0.10864000022411346 -0.01664399914443493 -0.28275999426841736 0.123089998960495 -0.26458999514579773 -0.37700000405311584 1.09660005569458 -0.23513999581336975 -0.19359999895095825 0.8421400189399719 -0.30090999603271484 -0.11264000087976456
-0.21062999963760376 -0.010991999879479408 -0.17552000284194946 0.4723300039768219 -0.21738000214099884 0.41697999835014343 0.15916000306606293 -0.048583999276161194 -0.11356999725103378 0.2524400055408478 -0.3557099997997284 -0.09883800148963928 -5.486299991607666 -0.21536000072956085 0.18756000697612762 0.0003764200082514435 0.1199600026011467 -0.5067800283432007 -0.1710200011730194 -0.03558000177145004 -0.45107999444007874 0.16827000677585602 -0.16824999451637268 -0.34801000356674194 0.3952299952507019 -0.5811600089073181 -0.0899519994854927 0.08061199635267258 0.22333000600337982 -0.5748000144958496 0.019334999844431877 0.06541900336742401 -0.0248160008341074 0.16432000696659088 -0.43224000930786133 -0.2420399934053421 0.02896999940276146 -0.01828400045633316 0.1488099992275238 -0.034582000225782394 -0.9062299728393555 -0.06692899763584137 -0.009203200228512287 -0.0766569972038269 0.47060999274253845 -0.1885800063610077 0.15725000202655792 0.706250011920929 0.027184000238776207 -0.15488000214099884 -0.5314599871635437 0.292930006980896 0.06960800290107727 -0.2646400034427643 0.3835600018501282 0.16448000073432922 -0.5064600110054016 0.1434900015592575 0.6327999830245972 0.0890439972281456 -0.10984999686479568 -0.0469990000128746 0.05808800086379051 -0.04665200039744377 0.11705999821424484 -0.2880699932575226 -0.541450023651123 0.5355899930000305 0.41179001331329346 0.42934998869895935 0.3509100079536438 0.2398100048303604 0.37136000394821167 -0.5367000102996826 -0.33397001028060913 -0.23024000227451324 -0.3165999948978424 -0.13082000613212585 0.12031000107526779 -0.1006999984383583 1.8279000520706177 0.028478000313043594 -0.6263800263404846 -0.35604000091552734 -0.3638699948787689 0.024049999192357063 -0.11469999700784683 -0.05272600054740906 -0.4068700075149536 -0.028341999277472496 0.07595299929380417 0.07503499835729599 -0.46834999322891235 0.003926199860870838 -0.07468999922275543 0.2737799882888794 -0.2356099933385849 -0.37547001242637634 0.5802900195121765 0.16066999733448029
0.23667000234127045 0.6209099888801575 0.20324000716209412 -0.1177000030875206 -0.0498570017516613 -0.12184000015258789 0.4684799909591675 -0.029097000136971474 0.1026500016450882 -0.016652999445796013 -0.12213999778032303 -0.20151999592781067 -5.827199935913086 0.004737399984151125 -0.2722199857234955 -0.4354200065135956 -0.27564001083374023 -0.1284099966287613 -0.23261000216007233 -0.06350299715995789 0.5378400087356567 -0.2858799993991852 -0.26333001255989075 -0.3010700047016144 0.26023000478744507 -0.061560001224279404 0.19314000010490417 0.24313999712467194 -0.048691000789403915 -0.24285000562667847 0.4732399880886078 0.2913999855518341 0.24494999647140503 0.41012999415397644 -0.6296399831771851 -0.18918000161647797 0.2614299952983856 -0.30788999795913696 0.6193699836730957 -0.1767899990081787 0.12689000368118286 0.16641999781131744 -0.03046800009906292 -0.1657799929380417 0.2287299931049347 -0.6627100110054016 0.0649380013346672 -0.2108200043439865 0.23683999478816986 -0.20746999979019165 -0.1013299971818924 0.29954999685287476 -0.08040300011634827 0.08763100206851959 0.13601000607013702 0.20931999385356903 0.006204099860042334 0.27414000034332275 -0.09996400028467178 0.009459500201046467 -0.3082500100135803 -0.01539199985563755 -0.19453999400138855 0.033805001527071 0.11500000208616257 -0.10750000178813934 -0.30496999621391296 0.1783899962902069 -0.32620999217033386 0.5121600031852722 0.2812100052833557 -0.25014999508857727 0.5560299754142761 -0.13686999678611755 -0.04892199859023094 -0.46070998907089233 -0.447380006313324 -0.055459000170230865 -0.860010027885437 -0.12336999922990799 2.4751999378204346 0.18741999566555023 -0.5292500257492065 0.01637200079858303 0.1512099951505661 -0.19415999948978424 0.2664099931716919 -0.4030500054359436 -0.817520022392273 -0.056494999676942825 -0.2130099982023239 0.009006800130009651 -0.09316299855709076 0.040853001177310944 -0.5116099715232849 -0.5454699993133545 -0.26295000314712524 -0.09985800087451935 0.35161998867988586 -0.4036400020122528
0.364439994096756 -0.12348999828100204 0.4530099928379059 0.3283900022506714 0.1143300011754036 0.15636999905109406 0.23183000087738037 0.0248429998755455 -0.24358999729156494 0.0829320028424263 -0.018519999459385872 -0.15218999981880188 -4.803400039672852 -0.15376000106334686 -0.3023500144481659 0.11151999980211258 0.5344300270080566 0.10924000293016434 -0.1588200032711029 0.6669899821281433 0.4284000098705292 -0.003246600041165948 0.13670000433921814 0.2285899966955185 -0.34668999910354614 -1.0836000442504883 0.004244999960064888 -0.45454999804496765 0.2145400047302246 0.08915500342845917 0.15126000344753265 -0.4401000142097473 -0.5111200213432312 0.39243000745773315 0.2024500072002411 0.09754499793052673 0.6410199999809265 -0.2415499985218048 -0.46856001019477844 -0.12506000697612762 -0.8334100246429443 -0.19700999557971954 -0.6270300149917603 0.1090800017118454 -0.12951000034809113 -0.37424999475479126 0.2819899916648865 -0.4375799894332886 -0.13288000226020813 -0.25181999802589417 -0.20385000109672546 0.4192500114440918 0.22846999764442444 -0.20020000636577606 -0.03311099857091904 0.3148399889469147 -0.2775999903678894 0.31266000866889954 0.1436299979686737 0.14836999773979187 -0.003158200066536665 -0.0843529999256134 0.014600999653339386 0.25088000297546387 0.18299999833106995 -0.320360004901886 -0.37031999230384827 0.30941998958587646 -0.16964000463485718 -0.06577199697494507 -0.48399999737739563 -0.10007999837398529 -0.00897310022264719 0.002436799928545952 0.002400000113993883 -0.5077499747276306 -0.39768001437187195 -0.09440100193023682 0.09378500282764435 0.296779990196228 2.1656999588012695 -0.16162000596523285 -0.16665999591350555 0.10770999640226364 0.1789100021123886 -0.031383998692035675 -0.8971899747848511 0.30577999353408813 0.1301400065422058 -0.019279999658465385 0.26627999544143677 0.19634999334812164 -0.04860299825668335 -0.05140300095081329 -0.11400999873876572 0.10085000097751617 -0.3394699990749359 -0.5925499796867371 0.37193000316619873 0.0306209996342659
0.6296700239181519 -0.19633999466896057 0.5555400252342224 0.13898000121116638 -0.6881899833679199 0.05561799928545952 0.08831000328063965 -0.6952000260353088 -0.5417799949645996 0.20081999897956848 0.08451700210571289 -1.0130000114440918 -3.8573999404907227 0.2999100089073181 0.1347299963235855 0.2932400107383728 -0.8713700175285339 0.10006000101566315 0.27691999077796936 0.333079993724823 1.257099986076355 -0.07348699867725372 0.05176699906587601 0.0873820036649704 0.10249999910593033 1.1109999418258667 -0.15866999328136444 -0.06759099662303925 0.4603100121021271 -0.27772000432014465 -0.5615900158882141 0.2877799868583679 0.1780800074338913 0.41391000151634216 -0.6502299904823303 0.8654299974441528 0.6784999966621399 0.1738400012254715 0.27577999234199524 0.11727999895811081 0.3239000141620636 0.4442799985408783 -0.10824999958276749 0.22830000519752502 0.007074300199747086 -0.54653000831604 -0.02462100051343441 0.5813000202178955 -0.3167499899864197 -0.35558998584747314 0.2612600028514862 0.31999000906944275 -0.0992790013551712 -0.3079400062561035 0.17971999943256378 -0.613510012626648 -0.7400000095367432 -0.1597999930381775 -0.3614700138568878 -0.40455999970436096 0.0955130010843277 -0.2596000134944916 -0.3063899874687195 -0.3445500135421753 -0.05431399866938591 0.2554500102996826 0.3152500092983246 -0.0696839988231659 -0.061409998685121536 -0.24206000566482544 -0.4326300024986267 0.31262001395225525 -0.06184900179505348 -0.5444499850273132 0.8196300268173218 -1.1267000436782837 0.2590399980545044 -0.5847899913787842 0.1471800059080124 -0.24544000625610352 0.7589100003242493 0.1872600018978119 -0.23051999509334564 0.48287999629974365 0.004631100222468376 0.6075299978256226 -0.3206999897956848 0.07080899924039841 -0.04117099940776825 0.3869900107383728 0.0047066002152860165 0.628790020942688 -0.13395999372005463 -0.0653270035982132 0.4101000130176544 -0.41214999556541443 -0.24155999720096588 0.1682800054550171 0.5341799855232239 0.282039999961853
0.13207000494003296 0.5065100193023682 -0.4965200126171112 -0.018533999100327492 -0.6788300275802612 -0.6412299871444702 0.551110029220581 0.5567200183868408 -0.2486400008201599 0.0538100004196167 0.013078000396490097 0.20446999371051788 -3.9800000190734863 -0.3239400088787079 0.43898001313209534 0.746720016002655 0.44909998774528503 -0.6294999718666077 -0.7936699986457825 -0.0387209989130497 -0.13571999967098236 -0.3009999990463257 -0.3295300006866455 0.09929999709129333 -0.03110799938440323 -0.15655000507831573 0.07245200127363205 0.545930027961731 0.5788999795913696 -0.9058899879455566 -0.6110799908638 0.6084499955177307 -0.5048099756240845 0.20038999617099762 0.6324399709701538 0.25446000695228577 0.6854299902915955 0.1942099928855896 0.03044700063765049 -0.03589300066232681 -1.2316999435424805 0.4052700102329254 0.1490900069475174 0.9788200259208679 0.17755000293254852 0.28314000368118286 -0.21086999773979187 -0.6097699999809265 -0.10322999954223633 0.48530998826026917 -0.5419600009918213 -0.7817500233650208 0.03919000178575516 -0.6001799702644348 0.8996400237083435 0.32311001420021057 -0.10304000228643417 0.14380000531673431 0.2255299985408783 -0.3443099856376648 0.4617300033569336 -0.6120499968528748 0.5512400269508362 0.6951500177383423 0.38102999329566956 0.5527799725532532 -1.0228999853134155 -0.5688499808311462 -0.8108900189399719 0.3806900084018707 0.6125699877738953 0.07496199756860733 0.5174300074577332 -0.11867000162601471 -0.13359999656677246 0.32034000754356384 0.44001999497413635 -0.22290000319480896 -0.65038001537323 0.6626499891281128 1.5231000185012817 0.8928800225257874 0.12509000301361084 0.43904000520706177 0.25916001200675964 0.04775800183415413 -0.12755000591278076 -0.1474599987268448 0.8380900025367737 0.2415200024843216 0.1197500005364418 0.023221999406814575 0.1534000039100647 -0.5213199853897095 -0.3202100098133087 -0.862559974193573 -0.036795999854803085 0.4611699879169464 0.3202599883079529 -0.40748998522758484
0.149959996342659 -0.20155000686645508 0.3302299976348877 0.20145000517368317 -0.539139986038208 0.3228900134563446 0.7612000107765198 -0.7063199877738953 -0.00797330029308796 0.27059999108314514 -0.08755599707365036 -0.8911299705505371 -4.753200054168701 0.24028000235557556 -0.6443399786949158 -0.7476800084114075 -0.8450599908828735 0.22697000205516815 0.8946099877357483 -0.19434000551700592 0.6526299715042114 0.0343099981546402 -0.02191999927163124 0.2671099901199341 0.01448999997228384 0.9211599826812744 0.11659999936819077 0.37946000695228577 0.3526099920272827 -0.12764999270439148 -0.1753299981355667 -0.18327000737190247 0.019241999834775925 0.4536600112915039 -0.0006534400163218379 0.5078700184822083 0.9725199937820435 0.36079999804496765 0.34848999977111816 -0.023293999955058098 -0.036556001752614975 0.1311500072479248 0.1708499938249588 0.46581000089645386 0.606190025806427 0.09874799847602844 -0.150969997048378 0.23624999821186066 -0.486050009727478 -0.1306300014257431 0.4945499897003174 -0.24793000519275665 -0.1849599927663803 0.17101000249385834 0.613789975643158 -0.8213300108909607 -0.7236899733543396 -0.13016000390052795 -0.3777399957180023 -0.1805099993944168 0.2078700065612793 0.12477000057697296 0.08172400295734406 -0.10807999968528748 0.4078199863433838 0.026570999994874 -0.032607998698949814 0.0846640020608902 -0.3297699987888336 0.4028800129890442 -0.4003700017929077 0.42750000953674316 0.04196000099182129 0.17719000577926636 0.522350013256073 -0.9002799987792969 0.5088099837303162 -0.23322999477386475 0.06664200127124786 -0.4696800112724304 0.65802001953125 0.4313400089740753 -0.31419000029563904 -0.3194200098514557 0.5257899761199951 0.2192399948835373 -0.48135000467300415 0.06621299684047699 -0.05195000022649765 0.44822999835014343 0.024979999288916588 0.07137300074100494 -0.1020599976181984 -0.42798998951911926 0.6947500109672546 -0.3035599887371063 -0.001281099976040423 0.3470799922943115 0.16017000377178192 0.468860000371933
0.15735000371932983 -0.15716999769210815 0.4151900112628937 -0.1907999962568283 0.43981000781059265 0.38826999068260193 0.21139000356197357 0.21398000419139862 -0.3449999988079071 0.061524998396635056 -0.2147199958562851 0.14372999966144562 -4.986199855804443 0.05773700028657913 -0.262690007686615 -0.058104000985622406 0.02742299996316433 -0.2861199975013733 -0.22466999292373657 -0.19122999906539917 0.3402700126171112 -0.09285199642181396 0.3737100064754486 0.21487000584602356 0.2247599959373474 -0.10832999646663666 -0.09232000261545181 0.3584499955177307 -0.22347000241279602 -0.268669992685318 -0.03966299816966057 0.13521000742912292 -0.31839001178741455 0.35989001393318176 -0.12366999685764313 0.13350999355316162 0.08842899650335312 -0.11997000128030777 -0.13704000413417816 -0.048896998167037964 -0.6348000168800354 0.15423999726772308 0.1936199963092804 -0.06989499926567078 0.4437200129032135 0.28606000542640686 0.10169000178575516 0.26357001066207886 -0.08204899728298187 0.3458299934864044 -0.3039099872112274 0.15795999765396118 0.12907999753952026 0.05334800109267235 0.052521999925374985 -0.2516300082206726 -0.5707399845123291 -0.32572001218795776 0.17431999742984772 0.06704799830913544 0.828499972820282 0.05098100006580353 -0.3896700143814087 -0.12246999889612198 0.33066999912261963 -0.1159299984574318 -0.34801000356674194 -0.4356499910354614 -0.458050012588501 0.33737999200820923 -0.3657799959182739 0.20845000445842743 -0.167480006814003 -0.05505799874663353 0.303849995136261 -0.38495001196861267 0.2913599908351898 0.12317000329494476 -0.04439200088381767 -0.03701300173997879 1.6786999702453613 0.2015800029039383 0.08123499900102615 -0.17970000207424164 0.2937000095844269 0.08915100246667862 -0.42559999227523804 -0.02434699982404709 -0.3065199851989746 -0.17486999928951263 -0.06348799914121628 0.09378399699926376 -0.09373000264167786 -0.1882999986410141 0.03982999920845032 -0.12567000091075897 -0.2154799997806549 -0.3873800039291382 0.09458799660205841 -0.2495100051164627
0.33463001251220703 0.31349000334739685 0.21419000625610352 0.5557199716567993 -0.7118800282478333 0.227400004863739 0.5820000171661377 -0.08601199835538864 0.2154799997806549 0.7071599960327148 0.23732000589370728 -1.010200023651123 -4.744100093841553 0.1036200001835823 -0.5466099977493286 -0.03229299932718277 -0.24417999386787415 -0.013976999558508396 0.5898000001907349 -0.029823999851942062 1.0611000061035156 0.14542999863624573 -0.21815000474452972 0.5625 -0.0003510400129016489 0.6781700253486633 0.05831800028681755 0.5472300052642822 -0.0030761000234633684 -0.4904400110244751 -0.12793999910354614 -0.3973900079727173 -0.07129400223493576 0.24038000404834747 -0.4216200113296509 -0.009261899627745152 0.02376299910247326 0.4308199882507324 0.7212200164794922 -0.27331000566482544 -0.02566399984061718 -0.09439600259065628 0.4250499904155731 -0.06929100304841995 -0.12026999890804291 0.16378000378608704 0.21005000174045563 0.14932000637054443 -0.5330600142478943 -0.3774400055408478 -0.4593000113964081 0.9310500025749207 -0.039253998547792435 -0.02062300033867359 0.3299500048160553 0.09797199815511703 -0.9099900126457214 -0.014298000372946262 -0.3120900094509125 0.06536299735307693 0.1133899986743927 0.12684999406337738 0.1385899931192398 -0.2512199878692627 0.25940001010894775 0.2636899948120117 -0.31766998767852783 0.4919399917125702 -0.3004299998283386 0.48816001415252686 -0.6668099761009216 0.13270999491214752 -0.1333400011062622 -0.5726400017738342 0.39232000708580017 -0.5689399838447571 0.1110600009560585 -0.09135100245475769 -0.39899998903274536 0.09115800261497498 0.7728099822998047 0.09370099753141403 -0.5227900147438049 -0.41668999195098877 0.4662899971008301 0.3426400125026703 -0.49296000599861145 -0.1784999966621399 0.025981999933719635 -0.025290999561548233 -0.11879999935626984 0.35249999165534973 0.08087500184774399 0.0014703000197187066 0.014809000305831432 -0.08104000240564346 0.18320000171661377 0.1080000028014183 0.20759999752044678 0.3303700089454651
-0.29458001255989075 -0.6172999739646912 0.49250999093055725 0.27911999821662903 -0.07213699817657471 -0.5241000056266785 0.902970016002655 -0.6367999911308289 -0.6634100079536438 0.29886001348495483 -0.32965001463890076 -0.45653000473976135 -2.069200038909912 -0.09569200128316879 0.7114400267601013 -0.7555699944496155 -0.20917999744415283 0.10110999643802643 -0.7494400143623352 -1.0720000267028809 -0.419050008058548 0.3184399902820587 -0.1737000048160553 0.38901999592781067 -0.7512999773025513 0.6614900231361389 -0.3613699972629547 0.7526000142097473 0.26440000534057617 0.028644999489188194 0.041634999215602875 -0.184579998254776 -0.030186999589204788 -0.2936300039291382 0.5187000036239624 0.5423200130462646 0.3256799876689911 1.8413000106811523 0.652459979057312 0.25683000683784485 -0.21543000638484955 0.05266299843788147 0.3891899883747101 -0.3883500099182129 -0.7273200154304504 0.584850013256073 -0.6542999744415283 0.009132999926805496 -0.04947099834680557 0.15761999785900116 0.602869987487793 0.916670024394989 -0.9492800235748291 1.1158000230789185 -0.5283799767494202 -0.3318299949169159 -0.19894999265670776 -1.2547999620437622 -0.49570000171661377 0.20021000504493713 -0.028706999495625496 -1.0670000314712524 0.8908100128173828 0.9663699865341187 0.05953200161457062 -0.24921999871730804 -0.32161998748779297 -0.48568999767303467 0.40696999430656433 -0.5801600217819214 -0.5213000178337097 0.584850013256073 0.9877200126647949 0.1812800019979477 0.15919999778270721 0.06992299854755402 0.3149299919605255 0.03345499932765961 -0.03746100142598152 -0.8040400147438049 0.6729099750518799 0.8395699858665466 0.4809499979019165 0.42552998661994934 0.05457200109958649 -0.5953800082206726 0.04151599854230881 -0.11327999830245972 0.8120700120925903 0.1143999993801117 -0.248989999294281 0.023780999705195427 0.2718900144100189 0.2906399965286255 0.17645999789237976 -0.4854399859905243 0.5316600203514099 -0.15302999317646027 -0.028341999277472496 -0.06059399992227554
0.613610029220581 -0.4085800051689148 -0.8589699864387512 0.0045427000150084496 0.351610004901886 0.7191100120544434 0.2294899970293045 -1.476699948310852 0.27689000964164734 -0.5799700021743774 -0.18416999280452728 -0.34272998571395874 -3.2339000701904297 0.45504000782966614 -0.758650004863739 0.03204900026321411 0.1103999987244606 0.20058999955654144 0.02598400041460991 -0.1849599927663803 -0.06678800284862518 0.3369399905204773 -0.031240999698638916 0.2851000130176544 -0.6449499726295471 0.23263999819755554 -0.11361999809741974 0.2842699885368347 0.46908000111579895 0.5248500108718872 -0.49720001220703125 -0.005883300211280584 -1.3029999732971191 -0.686680018901825 0.9531700015068054 -0.024183999747037888 -0.18167999386787415 0.13079999387264252 0.34463000297546387 -0.5248799920082092 0.38464000821113586 -0.6865599751472473 -0.29907000064849854 0.26552000641822815 0.782069981098175 -0.1617799997329712 -0.43801000714302063 -0.06125799939036369 -0.45267999172210693 0.1309400051832199 0.7780799865722656 0.16930000483989716 -1.0996999740600586 0.3524399995803833 -0.41196998953819275 0.5195000171661377 -0.21741999685764313 -0.5481899976730347 -0.5447400212287903 -0.43626999855041504 0.29284998774528503 -0.9349899888038635 -0.03874899819493294 0.38019999861717224 0.9767900109291077 -0.0014822999946773052 0.19287000596523285 0.4776099920272827 -0.6491000056266785 0.5796300172805786 -0.2162500023841858 0.6555100083351135 0.19357000291347504 0.08779499679803848 -0.6547300219535828 0.5754200220108032 -0.13353000581264496 -0.06732500344514847 -0.1897200047969818 -0.3935700058937073 0.07154899835586548 0.6342800259590149 0.5909600257873535 0.06962800025939941 0.5377900004386902 -0.022871000692248344 0.9105299711227417 -0.4277400076389313 -0.21044999361038208 0.149849995970726 -0.0021961000747978687 0.6981599926948547 0.12353000044822693 0.018264999613165855 0.6711599826812744 0.23680000007152557 0.3582000136375427 0.1106100007891655 0.0447160005569458 -0.8592699766159058
0.6898400187492371 -0.4638800024986267 0.5605199933052063 0.41819998621940613 0.214819997549057 0.21243999898433685 0.3443399965763092 0.10698000341653824 -0.33133000135421753 -0.248089998960495 -0.11032000184059143 -0.5745099782943726 -3.101599931716919 -0.5597800016403198 0.3013400137424469 -0.2594600021839142 0.43669000267982483 -0.2900499999523163 0.3105199933052063 -0.28859999775886536 0.26693999767303467 0.6513199806213379 0.137580007314682 0.07068300247192383 -0.2260800004005432 0.860539972782135 0.16269999742507935 0.4045799970626831 -0.1726199984550476 0.26037999987602234 0.025988999754190445 -0.1062999963760376 -0.6325200200080872 0.3776099979877472 0.27685999870300293 0.4217599928379059 0.3246699869632721 0.13093000650405884 0.010852999985218048 -0.24086999893188477 0.3795599937438965 -0.15690000355243683 -0.04813800007104874 -0.024591999128460884 0.17896999418735504 -0.15380999445915222 1.7970000044442713e-05 -0.051020000129938126 -0.26403000950813293 -0.07603300362825394 0.06797800213098526 0.46858999133110046 -0.6395400166511536 -0.5057500004768372 -0.05380399897694588 0.0030928999185562134 -0.6426699757575989 -0.43533000349998474 -0.12669000029563904 -0.5759199857711792 0.17294000089168549 0.4216899871826172 0.12596000730991364 0.34623000025749207 0.07341600209474564 0.5704600214958191 0.1795399934053421 -0.12115000188350677 -0.019531000405550003 0.28374001383781433 -0.19537000358104706 -0.21514999866485596 0.38308000564575195 0.008774899877607822 0.6352300047874451 -0.3389900028705597 0.06084100157022476 0.2034199982881546 -0.5640400052070618 0.4203700125217438 0.7551199793815613 0.5128399729728699 0.6211400032043457 -0.5844200253486633 0.1047699972987175 -0.29613998532295227 0.06353399902582169 0.48708000779151917 -0.27748000621795654 0.15724000334739685 0.46112000942230225 0.4515700042247772 -0.2896299958229065 -0.27109000086784363 -0.031383998692035675 0.08378499746322632 -0.131400004029274 -0.00014575000386685133 0.09916500002145767 -0.20434999465942383
0.29423001408576965 -0.056547001004219055 0.5565400123596191 -0.28418999910354614 0.09650100022554398 0.08121100068092346 0.5272899866104126 -0.2298399955034256 -0.06276100128889084 0.07950100302696228 -0.34672999382019043 -0.4340499937534332 -2.7153000831604004 -0.09209199994802475 -0.09485500305891037 -0.03799699991941452 -0.43143001198768616 0.04670900106430054 -1.0292999744415283 -0.10690999776124954 -0.3910999894142151 -0.42465999722480774 -0.4440799951553345 0.3790700137615204 -0.34599998593330383 0.14977000653743744 -0.6403999924659729 -0.5625100135803223 0.40026000142097473 0.5771200060844421 0.368259996175766 -0.3833799958229065 -0.7347699999809265 0.18970000743865967 -0.151869997382164 0.46167999505996704 0.008107899688184261 0.5232999920845032 0.8363400101661682 -0.09604600071907043 -0.1059499979019165 -0.651639997959137 0.006400600075721741 0.09396199882030487 0.08969099819660187 0.15429000556468964 0.10540000349283218 0.3716199994087219 0.029729999601840973 -0.3553999960422516 1.2496999502182007 -0.1375100016593933 -0.4119899868965149 0.0824190005660057 -0.6962100267410278 -0.313400000333786 0.22109000384807587 -0.7731900215148926 -0.020573999732732773 -0.5248900055885315 0.16009999811649323 -0.4476900100708008 1.3725999593734741 -0.10044000297784805 -0.3961600065231323 0.6063200235366821 0.05624600127339363 0.035645000636577606 0.7526400089263916 0.30303001403808594 -0.20038999617099762 0.0572500005364418 0.3237200081348419 -0.1538199931383133 0.6440100073814392 -0.6188099980354309 1.3109999895095825 0.22186000645160675 0.09680800139904022 0.11721000075340271 0.3476400077342987 0.5086399912834167 0.3528200089931488 -0.14057999849319458 0.45436999201774597 -0.07754799723625183 0.19965000450611115 -0.04737599939107895 1.0432000160217285 -0.39441999793052673 -0.40255001187324524 0.6045799851417542 0.5364000201225281 0.4512600004673004 -0.30390000343322754 0.7139999866485596 0.4525899887084961 0.06365100294351578 -0.17539000511169434 -0.11980000138282776
0.9646599888801575 0.4322200119495392 -1.0494999885559082 -0.2455199956893921 0.7015299797058105 -0.14667999744415283 0.6293100118637085 -0.6724799871444702 0.02094700001180172 -0.22859999537467957 -0.13107000291347504 -0.3689199984073639 -3.093400001525879 -0.2801400125026703 0.17388999462127686 -0.45059001445770264 -0.12679000198841095 0.07571999728679657 0.621749997138977 -0.16141000390052795 -0.0851769968867302 -0.5250899791717529 -0.11935999989509583 1.2350000143051147 -0.719219982624054 1.0469000339508057 0.24010999500751495 0.6643900275230408 0.25786998867988586 0.75177001953125 -0.5343899726867676 0.288129985332489 -0.9876899719238281 -0.7212100028991699 1.1023999452590942 0.02974499948322773 0.4018400013446808 0.7028899788856506 0.51801997423172 -0.09415700286626816 -0.42056000232696533 0.4275600016117096 0.10458999872207642 0.01882299967110157 0.5100899934768677 0.2940399944782257 0.30562999844551086 0.05490700155496597 -0.5540099740028381 0.0696839988231659 0.5371400117874146 -0.23728999495506287 -0.8249300122261047 0.8372200131416321 -0.2281699925661087 0.6009299755096436 -0.018293000757694244 -0.3547300100326538 -0.5558099746704102 -0.47701001167297363 0.2399500012397766 0.1267700046300888 -0.03862600028514862 0.8573499917984009 0.740809977054596 0.5984100103378296 0.2015399932861328 -0.164000004529953 -0.13871000707149506 -0.13149000704288483 -0.10499999672174454 0.16725000739097595 0.6172299981117249 -0.2832300066947937 0.28248998522758484 -0.6556699872016907 -0.6504999995231628 -0.23970000445842743 -0.05519599840044975 -0.6543800234794617 0.5040799975395203 0.7548800110816956 0.8928300142288208 -0.029423000290989876 0.2942200005054474 -0.07640399783849716 0.262800008058548 -0.36528000235557556 0.3259199857711792 0.37257999181747437 -0.31485000252723694 0.6432999968528748 0.3195599913597107 -0.09729000180959702 -0.14927999675273895 0.27643999457359314 0.3170199990272522 -0.1770399957895279 0.6085699796676636 -0.028057999908924103
0.22935999929904938 -0.8012099862098694 0.6056699752807617 0.20815999805927277 -0.7387400269508362 0.4759800136089325 0.4967299997806549 -0.4954400062561035 -0.5547000169754028 -0.42386001348495483 0.2384600043296814 -0.6350899934768677 -3.9351999759674072 0.6545500159263611 -0.450219988822937 -0.5555700063705444 -0.5380399823188782 0.5641599893569946 0.10187000036239624 -0.3789600133895874 0.5078099966049194 0.23263999819755554 0.1482599973678589 0.4075300097465515 -0.1633799970149994 1.2615000009536743 -0.5284000039100647 0.695330023765564 0.6208099722862244 0.09750699996948242 -0.4026400148868561 -0.3202199935913086 -0.22247999906539917 -0.2720400094985962 0.3277300000190735 0.6360099911689758 0.972819983959198 0.49744999408721924 0.35207000374794006 -0.26962000131607056 -0.058430999517440796 0.16767999529838562 0.07566899806261063 -0.0027578999288380146 0.4537599980831146 0.4877299964427948 -0.330159991979599 0.39862000942230225 -0.45743000507354736 -0.7473000288009644 1.0779000520706177 -0.6728299856185913 -0.6182399988174438 -0.596560001373291 0.42375999689102173 -0.21467000246047974 -0.2672500014305115 -0.8306699991226196 0.07787899672985077 -0.6711999773979187 0.0054790000431239605 -0.03750599920749664 0.1720999926328659 -0.8120399713516235 0.5717599987983704 0.4203999936580658 -0.33924001455307007 0.40303000807762146 0.23916999995708466 0.1164499968290329 -0.46950000524520874 0.41683998703956604 -0.374099999666214 0.13416999578475952 0.6376299858093262 -0.8588700294494629 0.13837000727653503 -0.2699199914932251 0.03511400148272514 -0.329800009727478 0.273250013589859 0.6012899875640869 -0.14309999346733093 0.3866199851036072 0.500029981136322 -0.6503199934959412 0.1793300062417984 -0.013464000076055527 0.46709999442100525 0.41335999965667725 0.5467299818992615 0.5445500016212463 0.17489999532699585 -0.287880003452301 0.7199199795722961 -0.5150200128555298 0.2562200129032135 0.43027999997138977 -0.13654999434947968 0.09425800293684006
-0.35892000794410706 0.4580700099468231 0.5235499739646912 0.539680004119873 0.153889998793602 0.2058500051498413 1.0164999961853027 -0.2515200078487396 0.061760999262332916 0.3242799937725067 -0.3472299873828888 -0.3001199960708618 -5.243800163269043 -0.3319000005722046 -0.6288800239562988 -0.4039199948310852 -0.31626999378204346 0.009637299925088882 0.45458000898361206 0.08549000322818756 -0.22352999448776245 0.3814699947834015 -0.3667899966239929 -0.36184000968933105 -0.0582519993185997 -0.16910000145435333 0.026851000264286995 0.40105000138282776 -0.2679699957370758 -0.26058000326156616 0.032905999571084976 0.2643899917602539 0.026340000331401825 0.8464300036430359 0.3919700086116791 -0.5903699994087219 0.4690999984741211 -0.4856800138950348 0.45120999217033386 0.3252899944782257 -0.6526700258255005 0.33636999130249023 -0.3868100047111511 -0.020894000306725502 0.21378999948501587 -0.11541999876499176 -0.30656999349594116 -0.32690998911857605 -0.30667999386787415 -0.0561549998819828 0.09341000020503998 0.15519000589847565 -0.010710000060498714 -0.22381000220775604 0.4355100095272064 -0.13309000432491302 -0.5089399814605713 -0.08551099896430969 0.06664600223302841 0.1897599995136261 -0.07961700111627579 -0.03551499918103218 0.19758999347686768 -0.33083000779151917 0.12004999816417694 -0.5927000045776367 -0.24153999984264374 -0.44830000400543213 -0.5543599724769592 0.8277300000190735 0.021051999181509018 0.12781000137329102 -0.3705500066280365 0.4150699973106384 0.3697899878025055 0.06314200162887573 -0.4438599944114685 -0.7178999781608582 -0.1745699942111969 0.18347999453544617 1.5019999742507935 0.13659000396728516 -0.5153399705886841 -0.47304001450538635 -0.45754000544548035 0.13192999362945557 0.3224799931049347 0.20100000500679016 -0.8242300152778625 0.010515999980270863 -0.3142699897289276 0.36660000681877136 -0.034435998648405075 -0.15995000302791595 0.22728000581264496 -0.2854599952697754 -0.2754800021648407 0.0910319983959198 -0.029058000072836876 -0.2562499940395355
-0.11163999885320663 0.3539600074291229 -0.21636000275611877 -0.08965799957513809 0.42864999175071716 -0.5820900201797485 0.23430000245571136 0.13155999779701233 -0.17497999966144562 0.3406899869441986 -0.12387000024318695 -0.09851399809122086 -5.782199859619141 0.1776999980211258 -0.5657200217247009 -0.6914899945259094 -0.3215799927711487 0.2615000009536743 -0.19348999857902527 -0.22201000154018402 0.17294000089168549 0.15057000517845154 0.20611000061035156 -0.18047000467777252 -0.07383999973535538 -0.051100000739097595 0.34992000460624695 0.03044399991631508 0.09054800122976303 -0.4310699999332428 -0.1846199929714203 -0.2735700011253357 -0.17305999994277954 0.0015112999826669693 0.10587000101804733 0.056292999535799026 -0.47113001346588135 -0.3393299877643585 0.041030000895261765 0.4077000021934509 -0.841759979724884 -0.06923600286245346 0.056345999240875244 -0.31593000888824463 0.6926000118255615 -0.27764999866485596 0.09679900109767914 -0.09600699692964554 -0.14013999700546265 0.8865200281143188 -0.007140500005334616 -0.6401600241661072 0.1712300032377243 0.5372999906539917 -0.04498400166630745 0.10016000270843506 -0.31926000118255615 0.06848400086164474 0.0575999990105629 0.3371700048446655 0.1765500009059906 0.14571000635623932 0.11242000013589859 0.3569999933242798 -0.12432000041007996 -0.4816800057888031 -0.6875200271606445 -0.19606000185012817 0.392659991979599 0.08153499662876129 0.4356299936771393 0.6126400232315063 0.20930999517440796 0.027865000069141388 -0.057392001152038574 -0.06482599675655365 0.29820001125335693 -0.37005001306533813 -0.051816001534461975 0.11375000327825546 2.302999973297119 0.7375800013542175 -0.6712899804115295 -0.22822999954223633 0.06335599720478058 0.5855299830436707 -0.3607200086116791 -0.12022999674081802 -0.2653299868106842 -0.3880699872970581 -0.6985200047492981 0.22296999394893646 -0.04027500003576279 0.2623400092124939 0.2738499939441681 -0.09874700009822845 -0.5076799988746643 -0.10389000177383423 0.3910300135612488 0.004554800223559141
-0.032749999314546585 0.4870400130748749 0.04268399998545647 -0.37136998772621155 -0.6076599955558777 0.4764699935913086 0.22029000520706177 0.31981998682022095 0.16968999803066254 -0.009489200077950954 -0.0463780015707016 -0.1910499930381775 -4.102399826049805 -0.157260000705719 -0.6107500195503235 -1.006700038909912 -0.1192300021648407 0.5451800227165222 0.11779999732971191 0.16764000058174133 -0.02517000027000904 0.0977960005402565 0.37057000398635864 0.08105099946260452 0.39208000898361206 -1.07669997215271 -0.0017161000287160277 -0.4620000123977661 -0.5875899791717529 0.45928001403808594 -0.7227799892425537 -0.3017300069332123 -0.2360599935054779 -0.05180799961090088 1.0104000568389893 -0.243149995803833 0.09080000221729279 -0.5015599727630615 -0.5428599715232849 0.1652899980545044 -0.820900022983551 -0.4397299885749817 0.24517999589443207 0.4856100082397461 0.4084700047969818 -0.12759999930858612 -0.4945099949836731 -0.14774000644683838 0.19933000206947327 -0.3206399977207184 0.06972400099039078 -0.6323999762535095 0.11071000248193741 0.6175000071525574 0.33114999532699585 -0.2697499990463257 -0.48680999875068665 0.02141300030052662 -0.10304000228643417 -0.4582499861717224 0.6208999752998352 -0.43463999032974243 -0.7848399877548218 0.029527999460697174 -0.3218500018119812 -0.25334998965263367 -0.39239001274108887 0.3660599887371063 -0.4793800115585327 0.07481499761343002 0.4623199999332428 0.11090999841690063 0.012513999827206135 0.133200004696846 -0.2296600043773651 -0.3922800123691559 -0.29458001255989075 0.43279001116752625 0.5314800143241882 -0.31292998790740967 1.25 -0.4754999876022339 0.18213999271392822 0.24619999527931213 0.9467300176620483 0.0018502000020816922 0.5774700045585632 0.29225000739097595 0.27171000838279724 0.15987999737262726 -0.13098999857902527 -0.22477999329566956 0.3354800045490265 -0.14757999777793884 -0.4451099932193756 1.1266000270843506 0.8977400064468384 -0.5759000182151794 0.17017999291419983 -0.5540199875831604
0.43542999029159546 0.028398999944329262 -0.0702430009841919 0.37810999155044556 0.483599990606308 0.06026799976825714 0.40373000502586365 -0.08497700095176697 -0.489439994096756 0.12589000165462494 -0.41317999362945557 -0.0892610028386116 -3.756500005722046 -0.1454399973154068 -0.2594600021839142 0.19088000059127808 0.6192899942398071 -0.6542400121688843 -1.107699990272522 0.008976699784398079 0.3002699911594391 -0.17599999904632568 -0.4857099950313568 -0.483599990606308 0.20950999855995178 -0.18897999823093414 -0.34626999497413635 0.17817999422550201 -0.3210099935531616 -1.1527999639511108 -0.37994998693466187 0.31092000007629395 -0.5295000076293945 0.3828499913215637 0.23795999586582184 0.2052299976348877 -0.14475999772548676 -0.3267599940299988 0.19544999301433563 0.005381300114095211 -0.9690999984741211 0.004977699834853411 0.33153000473976135 1.0268000364303589 0.6015499830245972 0.14257000386714935 0.3861599862575531 -0.08987399935722351 -0.20083999633789062 0.3574199974536896 -0.5384200215339661 0.09039700031280518 -0.1888899952173233 -0.3494400084018707 0.3556700050830841 0.7055400013923645 -0.17792999744415283 -0.33250999450683594 0.6656500101089478 -0.2048799991607666 0.041847001761198044 -0.3740600049495697 0.2698499858379364 0.04670700058341026 -0.28005000948905945 -0.037501998245716095 -0.4465000033378601 -0.6532300114631653 -0.028385000303387642 0.3855299949645996 -0.25126999616622925 -0.15978999435901642 0.033323999494314194 0.23542000353336334 -0.24053999781608582 -0.22067999839782715 0.4555099904537201 0.17639000713825226 -0.2512199878692627 0.4897800087928772 2.2348999977111816 0.03712699934840202 -0.6017000079154968 -0.19936999678611755 0.6661099791526794 0.4690999984741211 0.4212700128555298 -0.3161900043487549 -0.42344000935554504 0.4321799874305725 0.05463099852204323 -0.23586000502109528 -0.3733699917793274 -0.27132999897003174 -0.039487000554800034 -0.6661999821662903 0.19696000218391418 -0.19381999969482422 -0.19764000177383423 -0.6302899718284607
-0.040258001536130905 -0.023895999416708946 0.7399600148200989 -0.6769999861717224 0.22123999893665314 0.6633099913597107 0.6150000095367432 -0.18401999771595 0.35398000478744507 0.20698000490665436 -0.22732999920845032 -0.7071599960327148 -4.671599864959717 0.17835000157356262 -0.30382999777793884 0.34845998883247375 -0.14451000094413757 -0.10001000016927719 -0.3980799913406372 -0.17663000524044037 -0.3024600148200989 -0.20081999897956848 0.37160998582839966 -0.07133299857378006 0.06216000020503998 -0.8130199909210205 -0.0038638999685645103 -0.29003000259399414 0.09118299931287766 -0.20967000722885132 0.0635479986667633 -0.13831999897956848 -0.572920024394989 0.10520000010728836 -0.004170100204646587 0.6769400238990784 0.5096399784088135 -0.4689300060272217 0.09235800057649612 0.15428000688552856 -1.4559999704360962 0.05079900100827217 -0.14577999711036682 -0.39963001012802124 -0.0016709000337868929 0.1312199980020523 -0.3179199993610382 -0.16467000544071198 0.17102999985218048 0.03409399837255478 -0.21535000205039978 -0.06873200088739395 0.24751999974250793 0.3495999872684479 -0.010898999869823456 0.24652999639511108 -0.38787001371383667 0.35420000553131104 0.5696300268173218 0.5494099855422974 0.162090003490448 -0.6246100068092346 0.011238999664783478 0.27757999300956726 -0.0042085000313818455 -0.10298000276088715 0.23861999809741974 -0.5007799863815308 0.5043699741363525 -0.024311000481247902 0.15017999708652496 -0.07247699797153473 0.2533800005912781 -0.08230700343847275 0.8980299830436707 0.2404399961233139 0.3320299983024597 -0.13305999338626862 0.07902900129556656 0.43751001358032227 1.3630000352859497 0.13761000335216522 -0.03364500030875206 0.1289999932050705 0.7444499731063843 0.1179099977016449 -0.20788000524044037 -0.28488001227378845 0.5494099855422974 -0.5453699827194214 0.0014297999441623688 0.30303001403808594 -0.26385998725891113 -0.3102000057697296 -0.18446999788284302 0.0026722000911831856 0.10068999975919724 0.0707160010933876 -0.4764699935913086 -0.25714001059532166
0.2615799903869629 0.5666000247001648 -0.27834999561309814 0.04703199863433838 0.40727999806404114 0.762969970703125 0.12625999748706818 -0.5900999903678894 -0.23220999538898468 0.539900004863739 0.5760499835014343 -0.3572100102901459 -3.1291000843048096 -0.8582299947738647 -0.21512000262737274 0.03526899963617325 0.10334999859333038 -0.24348999559879303 0.636929988861084 -0.46952998638153076 -0.12067999690771103 -0.48037999868392944 0.4321199953556061 0.5906599760055542 -0.3034999966621399 0.6643000245094299 0.329259991645813 0.24408000707626343 0.21636000275611877 0.7690200209617615 -0.03357600048184395 -0.052237000316381454 0.0527850016951561 0.17118999361991882 0.5267599821090698 -0.1931000053882599 -0.8212599754333496 -0.16655999422073364 0.303849995136261 0.6594300270080566 -0.5312600135803223 0.006297899875789881 -0.26238998770713806 -0.19257999956607819 0.2648800015449524 -0.5770000219345093 0.5084400177001953 -0.021417999640107155 -0.8918099999427795 0.41095998883247375 0.09093999862670898 0.10391999781131744 0.0805480033159256 -0.8061500191688538 0.013512999750673771 0.3784100115299225 0.07374200224876404 -0.6636999845504761 0.28571999073028564 -0.3025600016117096 0.010122999548912048 0.43988001346588135 -0.6830099821090698 0.2939299941062927 0.44047999382019043 0.08905100077390671 0.21288999915122986 -0.9226099848747253 0.24910999834537506 -0.42118000984191895 -0.043595001101493835 -0.044227998703718185 -0.42500999569892883 0.30834999680519104 0.36805999279022217 0.1441500037908554 0.2838200032711029 0.2142300009727478 -0.46421998739242554 0.22193999588489532 1.666100025177002 0.1821800023317337 0.09560699760913849 -0.5889700055122375 0.43130001425743103 0.0059576998464763165 0.5896999835968018 0.061514001339673996 -0.29653000831604004 0.3486199975013733 -0.21145999431610107 -0.03641299903392792 -0.026978999376296997 -0.7546399831771851 -0.27952998876571655 -0.48003000020980835 0.27566999197006226 -0.05252800136804581 -0.7831400036811829 0.5337700247764587
-0.48370999097824097 -0.2731800079345703 -0.04684000089764595 0.7027400135993958 -0.5630099773406982 -0.1721400022506714 0.8177499771118164 -0.06664100289344788 0.02022399939596653 -0.23878000676631927 -0.01612200029194355 -0.17874999344348907 -4.928100109100342 -0.40272000432014465 -0.41190001368522644 -0.14569999277591705 0.18508000671863556 -0.19115999341011047 -0.8460800051689148 0.6537799835205078 0.12370000034570694 0.04883499816060066 -0.33708998560905457 0.2583400011062622 0.47729000449180603 -0.8814499974250793 -0.13083000481128693 0.7949900031089783 0.08621600270271301 -0.9180300235748291 -0.9667099714279175 -0.48309001326560974 -0.4096300005912781 0.16920000314712524 0.2324099987745285 -0.020524000748991966 0.22267000377178192 -0.267630010843277 0.14377999305725098 -0.046546999365091324 -1.1726000308990479 -0.035298001021146774 0.2834700047969818 0.43446001410484314 0.1847199946641922 0.3306500017642975 0.06784799695014954 -0.7648500204086304 0.18351000547409058 -0.6436100006103516 -0.7501500248908997 -0.04258299991488457 0.24262000620365143 -0.6410800218582153 0.697409987449646 -0.231330007314682 -0.2145400047302246 0.31040000915527344 0.2316100001335144 0.06839700043201447 0.08142799884080887 -0.393310010433197 -1.0927000045776367 -0.04261799901723862 -0.09696999937295914 0.3124299943447113 -1.0463000535964966 0.28207001090049744 -0.7244600057601929 0.31422001123428345 0.5919100046157837 -0.27715998888015747 -0.08374500274658203 -0.30487000942230225 0.4074299931526184 0.016906000673770905 -0.530210018157959 -0.40650999546051025 -0.28332000970840454 0.3518100082874298 1.4474999904632568 0.10492999851703644 -0.0973069965839386 -0.14305999875068665 0.002954399911686778 0.5333600044250488 0.03937600180506706 0.5100100040435791 0.08359300345182419 0.1323699951171875 0.8859800100326538 0.2887600064277649 -0.07166299968957901 0.33423998951911926 -0.08809400349855423 0.041478998959064484 -0.18501000106334686 -0.3299199938774109 0.27373000979423523 -0.15415999293327332
-0.07888399809598923 -0.09919200092554092 0.6853600144386292 -0.08760999888181686 0.30281001329421997 -0.17100000381469727 0.12251999974250793 -0.14961999654769897 0.13933999836444855 -0.6502699851989746 -0.7983899712562561 -0.09859800338745117 -4.528800010681152 -0.12504999339580536 0.1452299952507019 0.7438200116157532 0.6274899840354919 -0.42649000883102417 -0.7934899926185608 0.4372499883174896 -0.1176299974322319 0.6574500203132629 0.13225999474525452 -0.12928999960422516 0.16700999438762665 -0.27932000160217285 0.012112000025808811 -0.3826900124549866 -0.29892998933792114 -0.6807699799537659 -0.22448000311851501 -0.6003599762916565 -0.6897100210189819 0.06060300022363663 0.481330007314682 -0.2754499912261963 0.9108999967575073 -0.31442001461982727 -0.08098100125789642 -0.805180013179779 -1.385599970817566 -0.26041001081466675 -0.41290000081062317 -0.008459200151264668 0.4654900133609772 -0.21773000061511993 -0.10830000042915344 -0.729889988899231 0.3992699980735779 -0.24312999844551086 -0.4481799900531769 -0.23864999413490295 -1.083400011062622 0.24529999494552612 0.22806000709533691 -0.23082000017166138 -0.3199099898338318 0.2581000030040741 0.2737700045108795 -0.14332999289035797 -0.26895999908447266 -0.8767099976539612 -0.54544997215271 0.07953699678182602 -0.11530999839305878 0.26214998960494995 -0.38666000962257385 -0.6436399817466736 -0.1036200001835823 0.30651000142097473 0.0030271001160144806 0.025195999071002007 0.006754400208592415 0.5677800178527832 0.14422999322414398 -0.019511999562382698 -0.02202400006353855 -0.2528899908065796 -0.4858599901199341 0.005059299990534782 1.7036999464035034 -0.06899099797010422 0.0637739971280098 0.11331000179052353 0.5693399906158447 0.2874799966812134 -0.5591599941253662 0.44769999384880066 -0.14020000398159027 -0.36858999729156494 0.5044900178909302 0.10849999636411667 -0.43101000785827637 0.08045099675655365 0.23622000217437744 -0.2932499945163727 0.047944001853466034 0.2335599958896637 -0.5939000248908997 0.15095999836921692
-0.029343999922275543 -0.9980300068855286 0.29624998569488525 0.769070029258728 -0.21095000207424164 0.05862699821591377 0.504010021686554 -0.5170999765396118 -0.7967100143432617 0.37477999925613403 0.33553001284599304 -0.31165000796318054 -2.5195000171661377 0.1424800008535385 0.38324999809265137 0.6175400018692017 -0.2611899971961975 0.2155900001525879 0.5380799770355225 -0.7016900181770325 -0.003047300036996603 -0.05906299874186516 -0.7366399765014648 -0.051917001605033875 -0.3194200098514557 0.2942599952220917 0.16008000075817108 0.4565599858760834 -0.2011999934911728 0.3586899936199188 -0.37828999757766724 -0.39149999618530273 -0.5247499942779541 0.09563600271940231 -0.1266999989748001 0.31626999378204346 0.02114900015294552 1.6449999809265137 -0.010045000351965427 0.37672001123428345 -0.8196300268173218 -0.08401600271463394 -0.21583999693393707 0.20479999482631683 0.7391999959945679 -0.17570999264717102 1.0126999616622925 -0.004235699772834778 -0.24408000707626343 -0.35965999960899353 -0.36796998977661133 0.648639976978302 -1.0867999792099 -0.9431300163269043 -0.011234999634325504 0.534060001373291 -0.5289000272750854 -0.5392900109291077 -0.25971999764442444 0.22102999687194824 -0.13162000477313995 0.4443399906158447 0.5037599802017212 0.41600000858306885 -0.5785499811172485 0.0788780003786087 -0.0770689994096756 0.4046199917793274 1.1224000453948975 -0.21296000480651855 -0.23859000205993652 0.13342000544071198 -0.6028500199317932 0.45388999581336975 0.23407000303268433 -0.5921900272369385 0.24232999980449677 -0.1592700034379959 0.26614999771118164 -0.6337699890136719 0.5761500000953674 0.07451000064611435 -0.5125300288200378 -1.182800054550171 0.25624001026153564 -0.19202999770641327 0.9075999855995178 0.032680999487638474 0.13253000378608704 0.28169000148773193 -0.16812999546527863 0.8547800183296204 -0.09147000312805176 -0.8159499764442444 0.5191299915313721 -0.5647299885749817 0.023267000913619995 0.36250001192092896 0.46136999130249023 0.42572999000549316
0.459089994430542 -0.0416329987347126 0.31290000677108765 0.4775199890136719 -0.2392600029706955 -0.0979899987578392 1.0586999654769897 0.565779983997345 -0.44102999567985535 -0.2521600127220154 -0.9871799945831299 0.08796899765729904 -3.626499891281128 0.15331999957561493 0.19155000150203705 -0.19076000154018402 -0.5882300138473511 -0.3270600140094757 -0.5958200097084045 -0.710640013217926 0.2937699854373932 0.33149001002311707 -0.36945000290870667 0.8142399787902832 -0.263590008020401 -0.12870000302791595 -0.20622000098228455 -0.511489987373352 0.39976000785827637 0.1314300000667572 0.7518699765205383 -0.8762500286102295 -0.42403000593185425 0.08206800371408463 -0.4783799946308136 0.8767799735069275 0.39761999249458313 1.3532999753952026 0.28282999992370605 -0.2480500042438507 0.09838499873876572 0.006659899838268757 -0.14413000643253326 0.1532299965620041 -0.1632400006055832 -0.023600000888109207 0.22633999586105347 0.5429499745368958 -0.3691500127315521 -0.6039299964904785 0.7492700219154358 0.5604000091552734 -0.47863999009132385 0.0860539972782135 0.15431000292301178 -0.19200000166893005 -0.26649001240730286 -0.5302900075912476 -0.2594200074672699 -0.2475000023841858 -0.6604999899864197 -0.31720998883247375 1.4668999910354614 -0.2690500020980835 -0.10830000042915344 0.1887499988079071 -0.5782700181007385 -0.3986299932003021 0.9264500141143799 -0.33605000376701355 -0.03247499838471413 -0.5229399800300598 0.40588998794555664 -0.9241200089454651 0.28393998742103577 -0.06919799745082855 1.139799952507019 -0.3585300147533417 -0.6223800182342529 -0.22683000564575195 1.1775000095367432 0.47936999797821045 0.06152600049972534 0.015955999493598938 0.020855000242590904 -0.385809987783432 -0.7695099711418152 0.2373500019311905 0.15004000067710876 -0.460999995470047 0.5110999941825867 0.18711000680923462 -0.20360000431537628 0.7445700168609619 0.006930400151759386 -0.27035999298095703 0.2731100022792816 0.13409000635147095 -0.1818999946117401 0.2292799949645996
0.2787199914455414 -0.5304399728775024 -0.15768000483512878 0.5497999787330627 -0.1741500049829483 0.35161998867988586 0.4476900100708008 -0.07008799910545349 -0.31200000643730164 0.6866599917411804 0.47214001417160034 -0.8058000206947327 -3.5318000316619873 0.09724599868059158 0.16617999970912933 -0.2834700047969818 -0.2795700132846832 -0.2104099988937378 0.942300021648407 -0.3969300091266632 0.38109999895095825 -0.15671999752521515 -0.02519099973142147 0.33180999755859375 -0.604390025138855 1.526900053024292 -0.19550999999046326 0.537880003452301 0.5813500285148621 0.49876001477241516 -0.7776100039482117 0.16967999935150146 -0.23079000413417816 -0.694159984588623 0.700689971446991 0.6376399993896484 0.6164100170135498 0.8331500291824341 0.16255000233650208 -0.4063299894332886 0.1317799985408783 0.09580200165510178 -0.08050200343132019 -0.16864000260829926 1.0729000568389893 0.544730007648468 0.07297000288963318 0.6144099831581116 0.007622200064361095 0.037292998284101486 0.5716099739074707 0.24714000523090363 -0.5642399787902832 0.7309100031852722 -0.541920006275177 -0.0995820015668869 0.4356200098991394 -0.4697299897670746 -0.187049999833107 -0.860480010509491 -0.22139999270439148 -0.4786199927330017 -0.3389500081539154 0.4432399868965149 0.45221999287605286 0.30441001057624817 0.22994999587535858 -0.0866290032863617 -0.3113200068473816 0.14440999925136566 -0.4555499851703644 -0.8340100049972534 -0.4850600063800812 -0.23340000212192535 0.6056399941444397 -0.3303700089454651 0.29041001200675964 -0.6108599901199341 -0.4323999881744385 0.2390100061893463 -0.08842500299215317 0.3835499882698059 0.4488599896430969 0.14890000224113464 -0.06382100284099579 -0.03301899880170822 -0.009708999656140804 -0.36528000235557556 0.1763399988412857 0.5183200240135193 0.4678800106048584 0.6809099912643433 0.2953900098800659 0.19226999580860138 -0.15320999920368195 -0.27935999631881714 0.8220000267028809 -0.2736699879169464 0.8977699875831604 0.18006999790668488
-0.3110800087451935 -0.2568100094795227 -0.29008999466896057 0.3890799880027771 -0.374210000038147 -0.2995400130748749 0.6384900212287903 -0.6565300226211548 -0.3345800042152405 -0.21820999681949615 0.03983600065112114 -0.1451999992132187 -3.629699945449829 0.03551600128412247 -0.36748000979423523 -0.10965999960899353 -0.6713399887084961 0.5129299759864807 -0.48021000623703003 -0.5755500197410583 -0.05211000144481659 0.14771999418735504 -0.17398999631404877 0.7365400195121765 -0.7625200152397156 0.6958900094032288 -0.7139899730682373 0.31334999203681946 0.8922200202941895 -0.30476000905036926 0.05471400171518326 0.27967000007629395 -1.0250999927520752 -0.12949000298976898 -0.14080999791622162 0.09320700168609619 0.07499899715185165 -0.14827999472618103 -0.16423000395298004 -0.5019800066947937 0.24890999495983124 -0.5079500079154968 0.006263799965381622 -0.17531000077724457 0.0348609983921051 0.21674999594688416 -0.620989978313446 0.7094600200653076 -0.9410899877548218 -0.323170006275177 0.5023099780082703 0.25894999504089355 -0.5412999987602234 -0.8695600032806396 0.2448599934577942 -0.473690003156662 -0.20122000575065613 -1.1033999919891357 0.43191999197006226 -0.17262999713420868 -0.12171000242233276 -0.5691199898719788 0.865809977054596 -0.5287700295448303 -0.0490880012512207 0.3783000111579895 0.036083001643419266 0.062609001994133 0.705780029296875 0.3420200049877167 -1.1937999725341797 0.6740599870681763 0.3398999869823456 -0.20360000431537628 0.749809980392456 -0.39013999700546265 0.3222300112247467 -0.6026800274848938 -0.7299399971961975 -0.6819599866867065 1.3386000394821167 0.8198099732398987 0.4794600009918213 0.30149000883102417 -0.2635299861431122 0.05490899831056595 0.21020999550819397 0.5365099906921387 0.7816100120544434 0.05176699906587601 0.27331000566482544 0.4738200008869171 -0.6326799988746643 -0.17071999609470367 0.05979999899864197 0.09496500343084335 0.5433599948883057 0.7890899777412415 0.12616999447345734 -0.42149001359939575
0.338019996881485 0.7878400087356567 0.23646000027656555 -0.05973700061440468 -0.14753000438213348 -0.15067000687122345 0.33417999744415283 -0.5121399760246277 0.09182099997997284 -0.06379300355911255 0.04399099946022034 -0.2266400009393692 -5.497200012207031 0.20337000489234924 -0.6116399765014648 -0.4800899922847748 -0.3053700029850006 -0.014700000174343586 -0.09210100024938583 -0.10474000126123428 0.26201000809669495 -0.23580999672412872 -0.21797999739646912 -0.09898100048303604 -0.03076300024986267 0.228520005941391 -0.10051000118255615 0.19916999340057373 -0.15949000418186188 -0.28091999888420105 0.28600001335144043 0.18942999839782715 0.014515000395476818 0.30913999676704407 -0.47391998767852783 0.12031000107526779 0.30434998869895935 -0.24775999784469604 0.32910001277923584 -0.02139200083911419 0.04239499941468239 0.1802300065755844 0.02833000011742115 -0.3873499929904938 0.2646700143814087 -0.6218799948692322 0.09840799868106842 -0.05618000030517578 0.14042000472545624 0.03483600169420242 -0.0887330025434494 0.27810999751091003 0.18529999256134033 0.3905799984931946 0.20117999613285065 0.10397999733686447 -0.06860499829053879 0.47909998893737793 -0.01992500014603138 -0.08482600003480911 -0.1094600036740303 0.3583199977874756 -0.3928000032901764 -0.3487899899482727 0.39090999960899353 -0.355459988117218 -0.21006999909877777 -0.07114099711179733 -0.3118799924850464 0.28251001238822937 0.09473700076341629 0.002962399972602725 0.45069000124931335 -0.2825700044631958 -0.04905899986624718 -0.6520400047302246 -0.3933199942111969 -0.2091200053691864 -0.5946999788284302 -0.031543001532554626 2.566800117492676 0.34422001242637634 -0.34891000390052795 -0.09200700372457504 0.26684999465942383 0.05501199886202812 -0.07130900025367737 -0.31330999732017517 -0.7089599967002869 0.013830999843776226 -0.12407000362873077 0.05030199885368347 0.1331699937582016 -0.08510799705982208 -0.2062000036239624 -0.6773599982261658 -0.2478799968957901 0.0776280015707016 0.09233199805021286 -0.3081299960613251
0.447160005569458 0.9984099864959717 0.22639000415802002 -0.7846099734306335 -0.7635400295257568 -0.1254899948835373 -0.10025999695062637 -0.6386100053787231 -0.30542999505996704 -0.1415800005197525 -0.024757999926805496 -0.15167999267578125 -3.051300048828125 0.5537899732589722 0.12766000628471375 0.5224599838256836 0.03151300176978111 -0.11834999918937683 -0.7089200019836426 0.7653499841690063 1.0769000053405762 0.07343299686908722 -0.414110004901886 0.003084300085902214 -0.18698999285697937 1.0606000423431396 0.09442699700593948 -0.5208899974822998 0.21776999533176422 -0.7152400016784668 -0.36555999517440796 0.2907400131225586 -0.3174700140953064 0.01498000044375658 -0.14226000010967255 0.789330005645752 0.4201200008392334 -0.7096700072288513 -0.1402900069952011 0.2438099980354309 0.38576000928878784 -0.33680999279022217 0.46184998750686646 0.6154299974441528 0.22144000232219696 0.1934799998998642 0.24800999462604523 0.5570399761199951 -0.057743001729249954 -0.2201399952173233 -0.12781000137329102 -0.7614799737930298 -0.18050000071525574 -0.4306899905204773 0.05526899918913841 -0.2818099856376648 -0.10249000042676926 -0.18432000279426575 0.671720027923584 -1.0134999752044678 0.19185000658035278 -0.5215799808502197 0.44991999864578247 0.05450399965047836 0.18261000514030457 0.8428400158882141 -0.3917999863624573 -0.08683600276708603 -0.23231999576091766 0.3507100045681 -0.08817999809980392 -0.18132999539375305 0.6469600200653076 0.35141998529434204 0.4636099934577942 0.007918800227344036 0.14836999773979187 -0.1307400017976761 0.14305000007152557 0.10986000299453735 1.5735000371932983 -0.011993000283837318 -0.4539099931716919 0.9934800267219543 0.8727700114250183 0.5778700113296509 1.1622999906539917 -0.2906099855899811 0.7376999855041504 0.17986999452114105 0.11460000276565552 0.6366400122642517 -0.26649999618530273 -0.21396000683307648 -0.3673799932003021 -0.29107001423835754 0.06300099939107895 -0.2013999968767166 0.09152200073003769 -0.9842000007629395
0.1273300051689148 -0.12646999955177307 0.0722379982471466 -0.12370999902486801 0.0028502000495791435 0.5455399751663208 0.424019992351532 -0.27046999335289 -0.1429699957370758 -0.5898900032043457 0.1948300004005432 -0.8031700253486633 -3.7507998943328857 0.258650004863739 0.10047999769449234 -0.07664799690246582 0.03631500154733658 0.045333001762628555 -0.3799099922180176 0.2412700057029724 0.8476099967956543 0.0789709985256195 0.22821000218391418 -0.12511999905109406 -0.13478000462055206 0.6671000123023987 0.10228999704122543 0.07517299801111221 -0.07738500088453293 0.27480998635292053 -0.9574999809265137 -0.4036700129508972 -0.4758700132369995 -0.2522999942302704 0.3733200132846832 0.2513299882411957 0.4494599997997284 -0.08577100187540054 -0.45059001445770264 -0.20032000541687012 0.040759000927209854 0.16446000337600708 0.10768000036478043 -0.21654999256134033 0.21973000466823578 0.8355299830436707 -0.3700299859046936 0.24593999981880188 -0.21594999730587006 0.08725599944591522 1.3349000215530396 0.060107000172138214 -1.0404000282287598 0.7681300044059753 0.25012001395225525 0.10987000167369843 0.22721999883651733 -0.5281800031661987 -0.26278001070022583 -0.3399899899959564 0.704039990901947 -0.09491100162267685 -0.06491900235414505 0.14248999953269958 0.5908499956130981 0.29030001163482666 0.2935999929904938 -0.5704900026321411 0.0121069997549057 0.6795700192451477 -0.11034999787807465 -0.22154000401496887 0.16031000018119812 -0.166360005736351 0.6386600136756897 -0.5733500123023987 -0.1390099972486496 -0.3266800045967102 0.003236199961975217 -0.45662999153137207 1.2479000091552734 -0.19742999970912933 0.27955999970436096 0.24684999883174896 0.648389995098114 -0.26146000623703003 -0.10548999905586243 0.2078399956226349 0.03590700030326843 0.3590199947357178 0.3903599977493286 0.5865700244903564 0.4099699854850769 -0.10429999977350235 0.1894499957561493 -0.6596400141716003 0.2252800017595291 -0.20246000587940216 -0.17990000545978546 -0.5433800220489502
-0.20524999499320984 -0.18244999647140503 0.20194000005722046 -0.26655998826026917 -0.11129999905824661 0.263480007648468 0.23524999618530273 -0.11787000298500061 0.04021099954843521 0.023684000596404076 -0.14259999990463257 -0.3874500095844269 -5.103499889373779 0.12515999376773834 -0.8485000133514404 -0.568880021572113 -0.5892699956893921 -0.3355799913406372 -0.7619900107383728 -0.4266600012779236 -0.10649999976158142 0.5527399778366089 0.03319599851965904 -0.10012000054121017 0.13660000264644623 0.07414700090885162 -0.4312500059604645 0.6340100169181824 -0.009570499882102013 -0.678309977054596 -0.3943600058555603 0.34049999713897705 -0.5016800165176392 0.28297001123428345 -0.14858999848365784 0.6259999871253967 0.43000999093055725 0.18077999353408813 -0.14448000490665436 0.7271599769592285 -0.39361000061035156 0.5716699957847595 0.12056999653577805 -0.2697699964046478 0.4828599989414215 0.1029599979519844 0.19115999341011047 0.24717000126838684 -0.45201000571250916 0.4759899973869324 -0.04877199977636337 -0.06677299737930298 -0.08924499899148941 0.07581499963998795 -0.40612998604774475 0.24566000699996948 -0.041446998715400696 -0.5199099779129028 -0.3096199929714203 0.2792400121688843 0.012222000397741795 -0.37770000100135803 0.8360900282859802 0.06484299898147583 0.39035001397132874 -0.2561900019645691 0.19095000624656677 -0.49976998567581177 0.37696999311447144 -0.0562720000743866 -0.09635999798774719 0.5223100185394287 0.24338999390602112 0.06604699790477753 0.49595001339912415 -0.22213999927043915 0.7340199947357178 0.19958999752998352 0.12922999262809753 -0.10502000153064728 1.9356000423431396 0.41519999504089355 -0.08882799744606018 -0.29065001010894775 0.10591000318527222 -0.018682999536395073 -0.05396199971437454 0.021810000762343407 0.591480016708374 -0.03455900028347969 -0.2203799933195114 0.371289998292923 0.4181700050830841 -0.07231400161981583 0.05746300145983696 -0.3504300117492676 0.36134999990463257 0.45820000767707825 0.019860999658703804 -0.5797299742698669
